%YAML:1.0
---
opencv_ml_svm:
   format: 3
   svmType: C_SVC
   kernel:
      type: RBF
      gamma: 5.3836007705294255e+00
   C: 2.6918003852647123e+00
   term_criteria: { epsilon:1.1920928955078125e-07, iterations:1000 }
   var_count: 64
   class_count: 10
   class_labels: !!opencv-matrix
      rows: 10
      cols: 1
      dt: i
      data: [ 0, 1, 2, 3, 4, 5, 6, 7, 8, 9 ]
   sv_total: 1710
   support_vectors:
      - [ 4.68688505e-03, 2.86045223e-01, 2.05463201e-01, 1.36167139e-01,
          1.14369474e-01, 0., 0., 0., 0., 0., 1.90229475e-01,
          1.28242373e-01, 1.06681973e-01, 8.31005648e-02, 7.33571574e-02,
          1.18328802e-01, 1.50159225e-01, 1.72889009e-01, 1.48983777e-01,
          1.27137944e-01, 1.63963735e-01, 1.13671953e-02, 0.,
          1.27520328e-02, 0., 2.19766218e-02, 1.76529914e-01,
          2.17708260e-01, 1.36739582e-01, 1.53089315e-01, 1.45275801e-01,
          9.38021541e-02, 8.06984827e-02, 8.02997202e-02, 0.,
          1.21606827e-01, 1.42604783e-01, 2.17256173e-01, 1.62967458e-01,
          1.61583170e-01, 1.35728508e-01, 1.58655867e-01, 0., 0., 0.,
          5.69048449e-02, 7.61835650e-02, 5.05500510e-02, 1.19357027e-01,
          2.00336859e-01, 1.11436084e-01, 0., 0., 0., 5.95531352e-02,
          1.47598386e-01, 2.32089654e-01, 2.25844428e-01, 1.57580152e-01,
          2.00204656e-01, 5.36532663e-02, 7.45446086e-02, 8.46070573e-02,
          6.56317547e-02 ]
      - [ 1.40884861e-01, 1.97631419e-01, 1.11366473e-01, 2.29999959e-01,
          7.82846436e-02, 4.55355421e-02, 1.06417075e-01, 1.21540666e-01,
          0., 1.33052394e-01, 1.62024990e-01, 9.66240391e-02, 0.,
          4.35110219e-02, 1.97167382e-01, 1.21183805e-01, 2.37787709e-01,
          1.57668516e-01, 0., 4.60728109e-02, 7.38007277e-02,
          5.55655658e-02, 0., 0., 0., 0., 0., 0., 1.12682305e-01,
          1.90040439e-01, 1.91551685e-01, 1.81849599e-01, 1.35593638e-01,
          1.94683224e-01, 7.58964792e-02, 1.31150916e-01, 1.47120357e-01,
          1.56296045e-01, 2.09759712e-01, 1.56339854e-01, 1.82760730e-01,
          1.36329174e-01, 2.05297787e-02, 1.37254700e-01, 1.19479641e-01,
          7.70772099e-02, 8.57914835e-02, 7.41417408e-02, 0., 0.,
          1.12481952e-01, 0., 0., 0., 6.96308464e-02, 2.48289958e-01,
          1.70655891e-01, 2.65898585e-01, 1.55295506e-01, 1.40471458e-01,
          3.47530879e-02, 0., 0., 0. ]
      - [ 2.46070787e-01, 1.70266911e-01, 1.53222069e-01, 1.64869577e-01,
          0., 0., 9.39524695e-02, 0., 8.09423327e-02, 7.78216720e-02,
          6.46602809e-02, 1.12887427e-01, 1.59315750e-01, 1.06121093e-01,
          1.32348061e-01, 1.21161751e-01, 8.76392722e-02, 1.00090370e-01,
          1.17430672e-01, 1.86663777e-01, 8.98507312e-02, 1.58047274e-01,
          3.21234018e-02, 0., 0., 0., 0., 0., 1.88274190e-01,
          2.45290235e-01, 1.23190068e-01, 8.76535699e-02, 7.96237066e-02,
          1.16227008e-01, 0., 0., 1.38830751e-01, 9.08890516e-02,
          1.77530318e-01, 3.13579977e-01, 1.44187838e-01, 1.07375728e-02,
          0., 3.75820696e-02, 6.99947104e-02, 1.07597880e-01,
          6.11735471e-02, 6.45871311e-02, 2.23429263e-01, 1.11708328e-01,
          8.22689608e-02, 3.23848836e-02, 0., 3.89795154e-02,
          2.94250343e-02, 2.14346960e-01, 2.79283077e-01, 1.90920696e-01,
          1.40622422e-01, 1.34915337e-01, 0., 0., 8.76678601e-02,
          1.76384404e-01 ]
      - [ 1.45521596e-01, 1.27949372e-01, 1.10532112e-01, 1.74491897e-01,
          1.51050895e-01, 7.65104294e-02, 3.55374953e-03, 0.,
          1.06540181e-01, 8.24591666e-02, 1.44487053e-01, 8.52051303e-02,
          1.09461807e-01, 7.13637248e-02, 1.19681068e-01, 8.29822719e-02,
          1.18146196e-01, 1.03497185e-01, 1.00305744e-01, 1.86071768e-01,
          1.38545647e-01, 9.85496268e-02, 9.74997282e-02, 9.47675928e-02,
          5.98720573e-02, 1.13218330e-01, 9.19169784e-02, 1.32724121e-01,
          2.00874016e-01, 1.81902960e-01, 1.43914387e-01, 1.38902441e-01,
          4.89208139e-02, 9.55253616e-02, 0., 7.93681592e-02,
          1.06761150e-01, 2.14340791e-01, 2.52713382e-01, 1.63327172e-01,
          7.76931047e-02, 0., 0., 0., 0., 9.96525362e-02, 1.72976255e-01,
          2.03539491e-01, 1.22758016e-01, 1.36809483e-01, 1.04492098e-01,
          1.32600158e-01, 8.26903880e-02, 7.30535462e-02, 1.36671454e-01,
          5.52975126e-02, 1.31908476e-01, 2.50134289e-01, 1.60052940e-01,
          1.85291961e-01, 1.29533559e-01, 6.74403980e-02, 1.23648852e-01,
          9.01547223e-02 ]
      - [ 1.17178179e-01, 1.30015925e-01, 1.63764000e-01, 2.76196301e-01,
          0., 0., 0., 0., 1.01499846e-02, 0., 6.47503436e-02,
          2.11144865e-01, 1.59323528e-01, 1.29277423e-01, 1.10800579e-01,
          8.75997990e-02, 2.50449061e-01, 1.87296465e-01, 1.74587056e-01,
          0., 0., 0., 0., 0., 0., 0., 0., 0., 1.06895059e-01,
          7.77246132e-02, 2.48270348e-01, 1.79160774e-01, 1.08918585e-01,
          1.02311924e-01, 0., 2.27168113e-01, 8.55245665e-02,
          1.38740629e-01, 1.30588189e-01, 1.63603127e-01, 2.83183783e-01,
          3.48443398e-03, 2.53873561e-02, 0., 0., 8.43450278e-02,
          9.91888121e-02, 1.09218970e-01, 0., 0., 8.83630067e-02, 0., 0.,
          1.03428409e-01, 1.04830183e-01, 7.87147880e-02, 3.40745836e-01,
          2.01503739e-01, 2.01907650e-01, 1.69198558e-01, 0., 0., 0., 0. ]
      - [ 1.56064570e-01, 2.70428747e-01, 1.17613345e-01, 9.38607827e-02,
          6.51927888e-02, 8.56876597e-02, 6.56527355e-02, 7.64561594e-02,
          1.23190098e-01, 2.63737798e-01, 1.65150631e-02, 0., 0., 0., 0.,
          1.46179255e-02, 1.75508827e-01, 1.05612718e-01, 1.22386619e-01,
          1.14017494e-01, 1.66130990e-01, 1.05913229e-01, 1.00794464e-01,
          0., 1.11030653e-01, 0., 0., 0., 2.96120256e-01, 1.62687749e-01,
          9.18620229e-02, 1.17947727e-01, 6.21927530e-02, 1.33995190e-01,
          2.40686551e-01, 1.51969433e-01, 1.37624800e-01, 1.12926535e-01,
          1.07151769e-01, 1.58396065e-01, 6.92963898e-02, 8.32906961e-02,
          1.18751436e-01, 1.53060973e-01, 9.90597904e-02, 6.86944127e-02,
          4.97047156e-02, 0., 1.06603496e-01, 1.22345127e-01,
          6.47674426e-02, 1.77851170e-01, 1.09305881e-01, 6.53100163e-02,
          1.09009586e-01, 2.31750458e-02, 1.16839178e-01, 2.11759418e-01,
          1.86622068e-01, 2.86595643e-01, 6.93172589e-03, 3.84099446e-02,
          0., 0. ]
      - [ 3.35688181e-02, 1.84341565e-01, 2.47572541e-01, 2.54819423e-01,
          0., 0., 7.08157346e-02, 0., 0., 1.90748088e-02, 0.,
          2.41612360e-01, 1.03158526e-01, 9.12010148e-02, 7.48677403e-02,
          5.73824085e-02, 9.19278562e-02, 1.44649252e-01, 2.12608874e-01,
          5.79675846e-02, 0., 0., 0., 0., 4.96979319e-02, 3.81496176e-03,
          1.83057457e-01, 1.96836263e-01, 1.42030150e-01, 8.52472857e-02,
          1.09276310e-01, 1.16320863e-01, 6.66427985e-02, 6.11160807e-02,
          6.52759373e-02, 1.21840514e-01, 2.40673512e-01, 1.96698293e-01,
          1.23855792e-01, 8.46862122e-02, 1.29229635e-01, 1.70768619e-01,
          1.62078232e-01, 7.66855329e-02, 1.09957457e-01, 0.,
          8.95302743e-02, 6.21262789e-02, 1.68315023e-01, 1.49562955e-01,
          1.29113555e-01, 2.74820589e-02, 6.77812397e-02, 8.43933821e-02,
          9.86153111e-02, 1.73888013e-01, 1.29928932e-01, 2.55891353e-01,
          2.05754831e-01, 4.85514440e-02, 1.32273376e-01, 1.17972717e-01,
          9.73580852e-02, 7.30044842e-02 ]
      - [ 2.87740618e-01, 2.38035575e-01, 1.08695291e-01, 0., 0., 0., 0.,
          0., 1.90613970e-01, 1.05583176e-01, 4.35132049e-02, 0., 0., 0.,
          2.29134932e-02, 0., 1.19072519e-01, 0., 0., 0., 5.66821173e-02,
          7.97129869e-02, 5.70248663e-02, 1.85265332e-01, 1.97574064e-01,
          0., 0., 0., 6.46552145e-02, 1.50893196e-01, 2.16862753e-01,
          2.53244877e-01, 1.41448975e-01, 6.72378689e-02, 5.94369732e-02,
          1.07694000e-01, 7.14974999e-02, 1.52474597e-01, 2.25422218e-01,
          2.18355685e-01, 1.71691924e-01, 1.10607050e-01, 1.16560102e-01,
          1.09494910e-01, 7.50312433e-02, 8.43201056e-02, 0.,
          1.66219115e-01, 2.25630894e-01, 1.41066000e-01, 7.78704360e-02,
          7.92302862e-02, 1.18033141e-01, 0., 1.98973380e-02,
          1.26664966e-01, 2.80662149e-01, 1.80961996e-01, 1.34453207e-01,
          1.38956875e-01, 1.21161290e-01, 3.19150165e-02, 3.59861590e-02,
          8.22890177e-02 ]
      - [ 5.89919165e-02, 3.84150296e-01, 7.85529315e-02, 0., 0.,
          7.99052231e-03, 0., 2.31824908e-02, 0., 2.88057506e-01, 0., 0.,
          0., 0., 0., 0., 1.02564119e-01, 8.62093344e-02, 1.17106728e-01,
          1.14250585e-01, 1.18233539e-01, 1.22973800e-01, 8.16602483e-02,
          9.87723768e-02, 1.57348961e-01, 7.01283738e-02, 4.13353853e-02,
          1.41305044e-01, 2.15139389e-01, 1.54583722e-01, 1.04915030e-01,
          2.28525087e-01, 7.26806000e-02, 1.73563004e-01, 1.84129030e-01,
          1.06364183e-01, 1.10489950e-01, 1.28928199e-01, 1.03958704e-01,
          8.02774355e-02, 1.11428082e-01, 2.86478251e-01, 5.21309562e-02,
          0., 0., 0., 0., 0., 0., 1.87100962e-01, 1.88635007e-01,
          5.72711676e-02, 6.05873577e-02, 2.08378583e-02, 1.23130083e-01,
          1.18808448e-01, 1.19437933e-01, 1.60268858e-01, 2.06330299e-01,
          2.61684000e-01, 0., 0., 3.78483385e-02, 2.43843533e-02 ]
      - [ 0., 1.53340593e-01, 3.22424710e-01, 1.02799952e-01, 0., 0., 0.,
          5.22392988e-02, 5.82100451e-02, 1.11955710e-01, 1.96015075e-01,
          0., 0., 0., 0., 0., 1.44914120e-01, 1.30564243e-01, 0.,
          1.03673279e-01, 7.91083127e-02, 9.98342335e-02, 6.14746399e-02,
          6.21921793e-02, 0., 1.27593521e-02, 9.73852128e-02,
          2.77089894e-01, 1.22300074e-01, 8.69245380e-02, 1.05927944e-01,
          9.53265727e-02, 3.27430665e-02, 1.36403209e-02, 2.56536871e-01,
          2.78644800e-01, 1.02321483e-01, 1.25179142e-01, 8.58926550e-02,
          7.54911155e-02, 9.02787372e-02, 2.15470791e-01, 2.20786884e-01,
          0., 3.81526686e-02, 0., 4.65220734e-02, 5.06344400e-02,
          1.67853698e-01, 2.17272192e-01, 3.93541679e-02, 0.,
          4.11115438e-02, 0., 7.37313330e-02, 1.38000175e-01,
          8.46591890e-02, 3.06666821e-01, 1.41859382e-01, 1.75826073e-01,
          1.18638463e-01, 9.78125036e-02, 1.05119810e-01, 1.39615566e-01 ]
      - [ 8.62203613e-02, 1.21636227e-01, 1.62451833e-01, 2.84682751e-01,
          1.38605878e-01, 4.86114137e-02, 0., 0., 1.02953672e-01,
          9.01306048e-02, 1.05560035e-01, 2.69260526e-01, 6.17506541e-02,
          0., 7.95585141e-02, 1.15811050e-01, 7.07187131e-02,
          1.15446381e-01, 1.91684067e-01, 0., 0., 0., 1.44312624e-02,
          1.12343639e-01, 9.64399427e-02, 1.03918537e-01, 1.58625707e-01,
          1.12569921e-01, 1.19232051e-01, 5.48471771e-02, 1.22603618e-01,
          1.52516782e-01, 1.07762925e-01, 3.74288298e-03, 4.03845347e-02,
          1.67691514e-01, 2.68121123e-01, 1.02120712e-01, 1.24605037e-01,
          1.12318285e-01, 1.33837819e-01, 8.66663605e-02, 0.,
          1.49529964e-01, 2.25945696e-01, 8.48377645e-02, 6.95054233e-02,
          9.16829929e-02, 4.72871698e-02, 2.47552499e-01, 2.20752075e-01,
          0., 0., 0., 0., 0., 5.97690456e-02, 3.07622850e-01,
          2.44798616e-01, 0., 0., 0., 0., 0. ]
      - [ 1.22796655e-01, 9.53926817e-02, 3.22946936e-01, 1.96918756e-01,
          0., 0., 0., 0., 0., 0., 1.33757815e-01, 2.58080244e-01,
          1.01176724e-01, 0., 1.15005679e-01, 4.94376794e-02,
          3.12786072e-01, 1.73048839e-01, 0., 0., 0., 0., 0., 0.,
          6.05399068e-03, 5.09077869e-03, 6.98629022e-02, 1.55897439e-01,
          9.00714621e-02, 1.30732775e-01, 7.79853165e-02, 1.35028183e-01,
          1.06808200e-01, 0., 7.72492737e-02, 1.89873144e-01,
          1.42844602e-01, 1.38699085e-01, 1.65034980e-01, 1.65523976e-01,
          2.26690158e-01, 1.03373341e-01, 0., 0., 9.97058526e-02,
          6.63106069e-02, 1.11189716e-01, 1.10634595e-01, 2.20192626e-01,
          7.41048753e-02, 0., 0., 0., 0., 0., 7.49261528e-02,
          3.82368118e-01, 2.45572478e-01, 0., 0., 3.12642008e-02, 0., 0.,
          0. ]
      - [ 1.75073624e-01, 1.17874905e-01, 1.47752330e-01, 2.01245368e-01,
          1.25812322e-01, 6.95178360e-02, 6.20841831e-02, 8.74149427e-02,
          9.05821174e-02, 6.12005964e-02, 1.14584401e-01, 1.45382121e-01,
          1.25737190e-01, 1.23848274e-01, 1.51857197e-01, 1.38520330e-01,
          1.17108837e-01, 7.95874149e-02, 6.08877726e-02, 1.04248136e-01,
          1.59000263e-01, 2.06619114e-01, 4.17888397e-03, 0., 0., 0.,
          2.06156857e-02, 1.44283608e-01, 1.80411994e-01, 1.49023712e-01,
          2.01932713e-01, 1.19279496e-01, 1.30160257e-01, 7.04430193e-02,
          8.97321105e-02, 2.57703997e-02, 1.01784952e-01, 2.49018118e-01,
          2.02207178e-01, 1.59481496e-01, 8.75693038e-02, 3.56299393e-02,
          1.83347836e-01, 5.42288721e-02, 8.20081383e-02, 9.58465859e-02,
          1.30172849e-01, 8.88096616e-02, 1.51985466e-01, 1.50342584e-01,
          1.31563023e-01, 1.41258329e-01, 0., 0., 1.60296764e-02,
          1.62898496e-01, 2.00888321e-01, 1.61678240e-01, 1.38162449e-01,
          2.36636430e-01, 2.90777832e-02, 0., 0., 0. ]
      - [ 1.15138561e-01, 2.04966083e-01, 2.81046301e-01, 0.,
          2.54526865e-02, 0., 0., 0., 0., 0., 1.63088664e-01,
          1.32464156e-01, 1.15099356e-01, 9.98903587e-02, 7.85428137e-02,
          1.37302741e-01, 4.44205217e-02, 9.03604850e-02, 4.48848978e-02,
          9.90686044e-02, 2.35603377e-01, 1.80869415e-01, 3.09068076e-02,
          0., 0., 0., 9.58764255e-02, 1.02243297e-01, 2.03024119e-01,
          2.65715420e-01, 1.56097129e-01, 8.13334212e-02, 0.,
          4.06641625e-02, 1.43936753e-01, 1.20400116e-01, 1.05194747e-01,
          1.82098016e-01, 1.85071483e-01, 1.84475482e-01, 1.14800170e-01,
          1.73866779e-01, 7.75350854e-02, 1.04916461e-01, 1.35695308e-01,
          1.06815048e-01, 0., 0., 1.01085454e-01, 4.60517295e-02,
          7.10346103e-02, 1.76551759e-01, 1.03939131e-01, 0.,
          4.30934578e-02, 1.70501798e-01, 2.09596187e-01, 1.15925476e-01,
          1.45669550e-01, 2.12464884e-01, 5.04170321e-02, 0.,
          1.08331576e-01, 1.76601544e-01 ]
      - [ 2.95852479e-02, 6.83875158e-02, 9.08132568e-02, 2.07985044e-01,
          2.37338826e-01, 2.79518962e-02, 0., 0., 1.04483254e-02,
          5.07257599e-03, 8.32363591e-03, 1.00241136e-02, 3.06852669e-01,
          1.28875807e-01, 5.53409420e-02, 8.87816548e-02, 1.12833314e-01,
          3.25080276e-01, 8.02790597e-02, 0., 0., 4.49981913e-02, 0.,
          1.27892062e-01, 1.00357130e-01, 1.00071087e-01, 1.16073519e-01,
          1.11077473e-01, 1.04765952e-01, 1.38652325e-01, 9.36930180e-02,
          1.04142807e-01, 1.13847114e-01, 1.41664967e-01, 3.54003236e-02,
          0., 1.71749622e-01, 2.38809720e-01, 1.96479246e-01,
          1.68553054e-01, 1.47255227e-01, 0., 0., 0., 3.70929688e-02,
          2.10958928e-01, 8.56979266e-02, 1.34629205e-01, 5.69406413e-02,
          2.50371337e-01, 0., 0., 0., 0., 6.33446276e-02, 5.35084680e-02,
          1.70781761e-01, 2.83798695e-01, 2.47015670e-01, 0., 0., 0.,
          2.17217151e-02, 0. ]
      - [ 1.04855709e-01, 2.05843374e-01, 2.34726086e-01, 3.88049111e-02,
          8.44451487e-02, 5.77198677e-02, 4.28961404e-02, 8.70487243e-02,
          0., 7.95541406e-02, 7.20990002e-02, 0., 0., 0., 0.,
          9.68871117e-02, 1.43893287e-01, 7.90567249e-02, 4.95068319e-02,
          0., 1.87187552e-01, 1.14084840e-01, 1.03006542e-01,
          5.41479662e-02, 0., 4.86743450e-02, 0., 2.09341183e-01,
          2.25436553e-01, 1.86136305e-01, 1.15770169e-01, 1.48624927e-01,
          0., 4.86657443e-03, 1.50618806e-01, 2.10518837e-01,
          2.03695461e-01, 1.90013200e-01, 7.70630687e-02, 8.32365304e-02,
          6.23818748e-02, 1.30484760e-01, 1.89613953e-01, 2.07499161e-01,
          0., 0., 0., 0., 4.34288234e-02, 7.90108740e-02, 1.07462406e-01,
          1.71008244e-01, 1.25212505e-01, 1.28862724e-01, 1.97206125e-01,
          1.28416941e-01, 1.56557903e-01, 1.05297022e-01, 1.33416057e-01,
          1.77734554e-01, 2.77434528e-01, 1.23906016e-01, 1.00364372e-01,
          9.84536558e-02 ]
      - [ 6.58073872e-02, 1.15019724e-01, 8.61979350e-02, 2.56622702e-01,
          1.78766638e-01, 0., 0., 0., 0., 0., 0., 1.92038864e-01,
          2.40473777e-01, 1.10509790e-01, 9.48765427e-02, 1.10471077e-01,
          3.58032554e-01, 1.30519971e-01, 0., 0., 0., 0., 0., 0., 0., 0.,
          0., 0., 0., 8.41681138e-02, 1.42946616e-01, 1.56790689e-01,
          1.33429319e-01, 1.59642428e-01, 0., 5.88004850e-02,
          3.05002123e-01, 6.87106848e-02, 1.16770215e-01, 8.32007974e-02,
          1.50385663e-01, 2.68629879e-01, 9.15097725e-03, 6.64498359e-02,
          1.41138390e-01, 8.17966014e-02, 8.51645321e-02, 7.43660256e-02,
          6.87930733e-02, 1.35464191e-01, 0., 0., 0., 0., 2.88232751e-02,
          2.52068341e-01, 3.43403786e-01, 1.90375522e-01, 0., 0.,
          8.00260454e-02, 0., 0., 0. ]
      - [ 1.81518883e-01, 1.94159329e-01, 2.24292308e-01, 1.70278311e-01,
          0., 0., 0., 0., 1.10427089e-01, 2.05950350e-01, 1.28367692e-01,
          6.41289949e-02, 1.18077628e-01, 6.61755633e-03, 3.25900805e-03,
          8.93522725e-02, 2.04802856e-01, 7.41984993e-02, 5.84510341e-02,
          1.52983695e-01, 1.30371019e-01, 7.84008950e-02, 9.39370841e-02,
          9.14987549e-02, 0., 0., 0., 4.25586402e-02, 1.77945167e-01,
          2.13193700e-01, 2.12960392e-01, 1.58671111e-01, 1.05757236e-01,
          1.17991693e-01, 0., 4.00139466e-02, 2.14809552e-01,
          2.14592889e-01, 1.59371451e-01, 8.24672263e-03, 1.80744767e-01,
          1.68601871e-01, 0., 0., 0., 1.66000172e-01, 1.47470281e-01,
          4.90084365e-02, 7.80690089e-02, 1.12901933e-01, 1.42830104e-01,
          0., 0., 0., 0., 3.56366299e-02, 3.49322140e-01, 2.02555746e-01,
          8.96112919e-02, 1.01651229e-01, 0., 6.23625703e-02,
          3.94726247e-02, 6.52567148e-02 ]
      - [ 1.81979120e-01, 2.40461573e-01, 1.65043116e-01, 1.69669867e-01,
          0., 0., 2.23162398e-02, 0., 1.51296020e-01, 1.75915256e-01,
          1.15382195e-01, 6.69762790e-02, 1.49683291e-02, 7.17151957e-03,
          3.53182317e-03, 0., 2.41695732e-01, 5.56958504e-02, 0.,
          1.03587387e-02, 0., 0., 0., 0., 0., 2.04226062e-01,
          9.93570238e-02, 7.34931678e-02, 1.09413438e-01, 6.96479827e-02,
          1.38701752e-01, 1.39073372e-01, 1.97541758e-01, 0., 0.,
          2.22117484e-01, 2.05432028e-01, 8.61408934e-02, 1.08198091e-01,
          5.93900718e-02, 2.75577754e-01, 1.20228581e-01, 4.76975255e-02,
          1.16897881e-01, 1.10631347e-01, 1.04705930e-01, 8.36747885e-02,
          5.86399771e-02, 3.25218856e-01, 6.46181405e-02, 0., 0., 0., 0.,
          3.31907794e-02, 5.58181666e-02, 4.08433795e-01, 9.16603431e-02,
          6.01695701e-02, 7.35647902e-02, 0., 8.11563581e-02,
          7.59971887e-02, 5.13168052e-02 ]
      - [ 9.62321758e-02, 9.93107259e-02, 2.07164064e-01, 1.49856865e-01,
          1.98740959e-01, 2.66646519e-02, 3.97499884e-03, 0.,
          4.48992625e-02, 1.27665892e-01, 1.27098829e-01, 1.45485148e-01,
          2.33085025e-02, 8.56205225e-02, 8.75668526e-02, 7.24830702e-02,
          1.08002841e-01, 1.37103662e-01, 1.05673298e-01, 1.55615032e-01,
          1.48284912e-01, 1.59093454e-01, 6.45828471e-02, 4.22938541e-02,
          9.33856666e-02, 7.39751682e-02, 7.86955729e-02, 1.39636770e-01,
          2.64041632e-01, 1.95656955e-01, 1.31554440e-01, 5.18240444e-02,
          1.08374901e-01, 0., 0., 0., 1.41032949e-01, 1.84226170e-01,
          2.07787305e-01, 1.60587460e-01, 9.35469046e-02, 0., 0.,
          4.57383618e-02, 1.20610379e-01, 1.36292413e-01, 1.15300983e-01,
          1.77061811e-01, 1.12064041e-01, 9.00062621e-02, 1.03362799e-01,
          1.41777024e-01, 8.62070918e-02, 2.16663405e-01, 7.09264576e-02,
          1.35906577e-01, 1.79970056e-01, 8.47923234e-02, 1.09873511e-01,
          2.49972984e-01, 1.32234052e-01, 1.27625942e-01, 3.91084850e-02,
          9.97817144e-02 ]
      - [ 3.10992934e-02, 2.53246397e-01, 1.73949376e-01, 1.71682507e-01,
          3.84738855e-02, 0., 0., 0., 1.91633608e-02, 1.89512715e-01,
          1.25564009e-01, 9.09821838e-02, 6.89809993e-02, 6.36893958e-02,
          7.09161013e-02, 3.16454396e-02, 2.05737710e-01, 5.36747687e-02,
          2.13843718e-01, 1.43174335e-01, 6.31841272e-02, 8.91461670e-02,
          6.36661947e-02, 6.21360764e-02, 1.53983474e-01, 1.62921965e-01,
          1.65348366e-01, 2.03596085e-01, 1.11035317e-01, 1.21558748e-01,
          1.02927409e-01, 1.40918508e-01, 8.27545747e-02, 1.35101989e-01,
          7.69896060e-02, 1.34953707e-01, 1.62036881e-01, 1.66387588e-01,
          1.54071167e-01, 1.38099357e-01, 1.52160972e-01, 5.63827343e-02,
          4.98811156e-02, 4.04525511e-02, 4.95428331e-02, 1.09495066e-01,
          1.06581204e-01, 3.47201340e-02, 1.38316363e-01, 3.66265923e-02,
          1.14547819e-01, 0., 0., 0., 5.46032861e-02, 2.36372665e-01,
          2.10609764e-01, 1.08571999e-01, 2.01010734e-01, 8.69482085e-02,
          1.05651833e-01, 1.21663563e-01, 1.40862942e-01, 2.11659327e-01 ]
      - [ 3.15218031e-01, 2.00335234e-01, 7.97951669e-02, 0., 0., 0., 0.,
          0., 0., 0., 0., 0., 0., 0., 4.90568168e-02, 2.22598165e-01,
          1.59157470e-01, 0., 0., 0., 0., 0., 0., 0., 0., 0., 0., 0., 0.,
          6.15967289e-02, 1.48528323e-01, 4.52591240e-01, 0., 0.,
          1.64018199e-01, 7.95748755e-02, 1.44021332e-01, 9.68634710e-02,
          6.88779950e-02, 1.98007032e-01, 3.75521868e-01, 1.23108178e-01,
          0., 0., 0., 0., 0., 0., 2.72408463e-02, 0., 0., 0., 0., 0.,
          1.48774441e-02, 4.25295860e-01, 2.45560199e-01, 1.31454110e-01,
          6.98560700e-02, 0., 1.10873103e-01, 7.79738054e-02, 0., 0. ]
      - [ 1.65286645e-01, 1.36066973e-01, 2.48260349e-01, 7.54652247e-02,
          8.09735358e-02, 1.29743993e-01, 1.06952995e-01, 3.82344164e-02,
          0., 4.27961834e-02, 2.01153606e-01, 1.64776787e-01,
          1.51575223e-01, 9.05644447e-02, 7.07314014e-02, 1.26357943e-01,
          1.52352482e-01, 2.88880944e-01, 4.95539047e-02, 0., 0., 0., 0.,
          6.87387362e-02, 8.37865174e-02, 1.06977504e-02, 7.17852414e-02,
          9.16008726e-02, 1.33934230e-01, 1.01519883e-01, 8.62735584e-02,
          9.05214995e-02, 1.02776788e-01, 1.04897887e-01, 0.,
          4.39073332e-02, 2.72767693e-01, 1.47999376e-01, 1.39126375e-01,
          1.04588412e-01, 2.01896518e-01, 8.19405094e-02, 8.96780659e-03,
          1.08274436e-02, 2.07343817e-01, 7.84415677e-02, 8.74676555e-02,
          7.44448155e-02, 5.21434955e-02, 2.80774564e-01, 2.34337039e-02,
          0., 2.79899910e-02, 0., 8.58697519e-02, 1.28855482e-01,
          9.95685905e-02, 4.04072344e-01, 9.79148522e-02, 2.83675510e-02,
          0., 0., 0., 0. ]
      - [ 9.42863226e-02, 8.03930536e-02, 1.23582490e-01, 2.38595635e-01,
          0., 0., 6.33682013e-02, 7.32669160e-02, 0., 5.01619913e-02,
          5.59780635e-02, 8.02095085e-02, 4.38025035e-02, 2.20583349e-01,
          1.69220731e-01, 1.69385657e-01, 1.14818983e-01, 1.66772291e-01,
          1.64040878e-01, 8.56444985e-02, 1.17120072e-01, 8.04115012e-02,
          7.46909752e-02, 1.03069976e-01, 6.09053336e-02, 1.23923622e-01,
          0., 5.02527095e-02, 2.06240684e-01, 1.25598520e-01,
          1.11380026e-01, 5.53211607e-02, 0., 0., 0., 0., 1.95999458e-01,
          2.78725803e-01, 1.79907605e-01, 1.67899042e-01, 7.74399936e-02,
          5.45582287e-02, 1.08228892e-01, 6.82064295e-02, 2.15362579e-01,
          1.44678965e-01, 0., 3.42817642e-02, 1.50072709e-01,
          1.10311203e-01, 1.11588009e-01, 1.03072569e-01, 2.62180846e-02,
          0., 6.79916069e-02, 2.23095745e-01, 2.22336173e-01,
          1.61894903e-01, 1.53100267e-01, 1.73506737e-01, 0.,
          5.79556786e-02, 1.18301049e-01, 2.14952543e-01 ]
      - [ 2.44095609e-01, 1.22276761e-01, 1.83639109e-01, 1.55867264e-01,
          3.51972356e-02, 0., 0., 8.09423700e-02, 1.25388607e-01,
          1.78217262e-01, 1.07373849e-01, 0., 0., 0., 3.16472282e-03,
          1.22422621e-01, 1.35559961e-01, 9.79097337e-02, 1.29352570e-01,
          1.44489065e-01, 1.07939444e-01, 8.75768438e-02, 1.08631648e-01,
          8.07572156e-02, 2.84814220e-02, 1.33355364e-01, 1.16354711e-01,
          1.73432693e-01, 1.71892554e-01, 1.30395830e-01, 1.39607310e-01,
          1.90142408e-01, 0., 9.25052539e-03, 1.16758808e-01,
          1.54081315e-01, 1.98215663e-01, 1.70993432e-01, 1.58738792e-01,
          1.06385395e-01, 7.12748095e-02, 9.24434364e-02, 8.69330838e-02,
          1.39085501e-01, 1.72383130e-01, 9.63252112e-02, 5.59153631e-02,
          2.14869827e-02, 1.36897072e-01, 1.15111701e-01, 1.83811769e-01,
          1.09002054e-01, 0., 1.38042504e-02, 1.08554959e-01,
          1.41179219e-01, 1.52551949e-01, 2.19498023e-01, 2.76395440e-01,
          6.32971674e-02, 0., 5.61030470e-02, 6.99931458e-02,
          1.51479453e-01 ]
      - [ 5.76115400e-02, 8.69121924e-02, 2.36883312e-01, 2.53961980e-01,
          9.45213065e-02, 0., 0., 0., 0., 7.07915053e-03, 1.50603548e-01,
          1.87320828e-01, 1.72179654e-01, 8.67021903e-02, 4.94622998e-02,
          8.66624489e-02, 1.33208290e-01, 1.39614731e-01, 1.56397939e-01,
          1.56890154e-01, 1.04573801e-01, 8.79472047e-02, 6.80729300e-02,
          7.38385469e-02, 8.34901035e-02, 7.97941610e-02, 8.56912956e-02,
          2.20921457e-01, 1.71730474e-01, 9.76399258e-02, 1.43436670e-01,
          1.71165526e-01, 0., 6.58776090e-02, 6.45495802e-02,
          6.93241209e-02, 2.00528592e-01, 1.52038530e-01, 2.19882101e-01,
          1.33492142e-01, 1.79021031e-01, 6.70664059e-03, 0., 0., 0.,
          1.87490895e-01, 1.33011103e-01, 1.22890167e-01, 9.87607911e-02,
          3.47427465e-02, 1.13723084e-01, 7.99964592e-02, 1.57001078e-01,
          1.04187660e-01, 1.15613796e-01, 1.15342714e-01, 9.63502526e-02,
          9.20381546e-02, 2.74633229e-01, 1.72240153e-01, 7.07316250e-02,
          9.88462865e-02, 8.61491114e-02, 2.88788117e-02 ]
      - [ 2.40376949e-01, 1.50502577e-01, 1.38810247e-01, 1.17504261e-01,
          5.56424037e-02, 8.64252746e-02, 1.11069642e-01, 8.57877433e-02,
          2.07090646e-01, 1.45778954e-01, 2.79005021e-02, 0., 0., 0., 0.,
          7.13915750e-02, 2.35893980e-01, 2.08972078e-02, 1.40448183e-01,
          3.96371409e-02, 7.71928877e-02, 1.21902339e-01, 0.,
          7.80008584e-02, 0., 0., 1.50669739e-01, 1.56676427e-01,
          1.31913438e-01, 1.47767588e-01, 1.42950743e-01, 1.54801339e-01,
          2.33098954e-01, 2.02918172e-01, 1.54744148e-01, 7.57093802e-02,
          1.14459641e-01, 7.01011866e-02, 1.21871114e-01, 1.36957034e-01,
          2.78326392e-01, 7.81275108e-02, 0., 0., 0., 0., 0.,
          6.31112382e-02, 1.88973814e-01, 7.60806873e-02, 4.95774001e-02,
          0., 2.81027872e-02, 0., 3.64178838e-03, 7.16804713e-02,
          3.85502189e-01, 1.24325514e-01, 1.11174174e-01, 6.08253665e-02,
          9.56195965e-02, 1.03795171e-01, 1.22085169e-01, 1.47774622e-01 ]
      - [ 2.08227843e-01, 3.02965492e-01, 3.54786664e-02, 5.07795401e-02,
          7.29499459e-02, 7.77028576e-02, 4.97944281e-02, 7.38877654e-02,
          6.04112595e-02, 1.08879752e-01, 2.71245018e-02, 0., 0., 0., 0.,
          0., 2.78225332e-01, 5.49451038e-02, 0., 6.24504015e-02, 0.,
          9.57637578e-02, 1.05986670e-01, 1.41575739e-01, 1.10686608e-01,
          1.59226283e-01, 2.08334729e-01, 1.19824700e-01, 1.10901266e-01,
          1.48000151e-01, 1.24497384e-01, 1.25856489e-01, 0.,
          9.30154845e-02, 9.70678255e-02, 1.02730654e-01, 2.36704558e-01,
          1.81134224e-01, 9.37546715e-02, 4.39457484e-02, 1.25449508e-01,
          2.56619930e-01, 3.97201069e-02, 2.73129717e-02, 0., 0., 0., 0.,
          1.35743797e-01, 1.43450692e-01, 1.82721838e-01, 7.91911408e-02,
          5.14542982e-02, 8.07824209e-02, 1.54678240e-01, 1.15936689e-01,
          1.21913560e-01, 2.34324515e-01, 1.50643811e-01, 1.73476145e-01,
          1.83326706e-01, 1.48818761e-01, 1.42217368e-01, 6.28287494e-02 ]
      - [ 1.13769598e-01, 1.82701901e-01, 1.54250428e-01, 1.94920197e-01,
          0., 5.20637594e-02, 0., 3.13717499e-02, 3.19630541e-02,
          5.71588725e-02, 6.73706904e-02, 7.94401914e-02, 6.97174892e-02,
          6.93947598e-02, 1.60386935e-01, 1.33413509e-01, 1.79679006e-01,
          3.37461308e-02, 1.01484023e-02, 0., 7.28911161e-02,
          1.11921117e-01, 1.17171437e-01, 1.43228784e-01, 1.83079153e-01,
          9.81412753e-02, 0., 5.41800372e-02, 7.12738857e-02,
          1.91077948e-01, 1.56561196e-01, 2.01250300e-01, 0., 0., 0.,
          2.42676556e-01, 1.17787652e-01, 1.17164344e-01, 2.35893294e-01,
          1.40656531e-01, 7.95979053e-02, 1.30485460e-01, 1.87894002e-01,
          1.27016813e-01, 1.07579529e-01, 1.10466063e-01, 1.28791004e-01,
          4.16068248e-02, 9.89617929e-02, 1.01991877e-01, 1.55982479e-01,
          1.15551926e-01, 9.31551680e-02, 5.07011972e-02, 2.06952631e-01,
          1.14300840e-01, 1.76174611e-01, 1.37696147e-01, 1.55028000e-01,
          1.85682610e-01, 1.05540238e-01, 1.21028349e-01, 1.89605981e-01,
          8.64491239e-02 ]
      - [ 7.20637292e-02, 1.03391595e-01, 6.40890300e-02, 9.27201137e-02,
          1.94698215e-01, 7.90764689e-02, 7.45080486e-02, 9.52130631e-02,
          1.50669619e-01, 6.30667135e-02, 6.86725378e-02, 0., 0., 0.,
          6.00470640e-02, 3.16995829e-01, 7.41843656e-02, 7.43551403e-02,
          8.73815715e-02, 8.47519115e-02, 2.61105329e-01, 1.92209519e-02,
          7.59075675e-03, 0., 0., 0., 0., 2.31845975e-02, 3.00088495e-01,
          1.50939450e-01, 1.33977905e-01, 8.51031840e-02, 0.,
          1.58266798e-02, 1.50685817e-01, 2.00934872e-01, 1.88545734e-01,
          1.73245758e-01, 1.21183753e-01, 1.03940286e-01, 5.22766784e-02,
          1.14276871e-01, 1.54951006e-01, 2.17526063e-01, 0., 0., 0., 0.,
          0., 1.26966938e-01, 1.25748172e-01, 1.70522422e-01,
          4.59167585e-02, 1.10479459e-01, 1.75261557e-01, 1.10955246e-01,
          1.56121060e-01, 1.19506419e-01, 1.86938435e-01, 1.99389160e-01,
          1.98743284e-01, 1.20594509e-01, 7.61380121e-02, 1.05241530e-01 ]
      - [ 1.58643037e-01, 1.40412912e-01, 1.61483049e-01, 1.44771621e-01,
          3.66235361e-03, 9.93330330e-02, 1.03569031e-01, 1.75026923e-01,
          1.21488661e-01, 8.50196853e-02, 7.60405734e-02, 9.53643993e-02,
          5.62631525e-02, 0., 6.77193925e-02, 1.93201452e-01,
          1.67699277e-01, 1.56453088e-01, 0., 2.09389031e-02,
          5.67056350e-02, 1.17208511e-01, 1.20000638e-01, 1.01075985e-01,
          4.51348089e-02, 1.41351074e-01, 1.34094998e-01, 1.02883995e-01,
          9.67588946e-02, 1.15135878e-01, 1.80880442e-01, 1.84404954e-01,
          1.06717914e-01, 1.89710081e-01, 5.52813001e-02, 0.,
          2.19537377e-01, 1.59824431e-01, 1.03163317e-01, 1.47497743e-01,
          1.61844358e-01, 1.43868759e-01, 2.24976819e-02, 0.,
          1.49392262e-01, 1.35767102e-01, 8.79238546e-02, 8.26172382e-02,
          1.16042390e-01, 1.11467578e-01, 1.33250877e-01, 8.66037905e-02,
          1.05050050e-01, 0., 1.24422185e-01, 2.04330817e-01,
          1.73855871e-01, 1.98611706e-01, 8.24110955e-02, 1.43439800e-01,
          1.59283429e-01, 9.60864201e-02, 1.04215302e-01, 1.38441712e-01 ]
      - [ 1.03571966e-01, 1.26949757e-01, 1.70994356e-01, 2.55012363e-01,
          0., 0., 0., 0., 1.24678649e-02, 4.94229095e-03, 9.42936167e-03,
          1.84053883e-01, 1.75433248e-01, 1.38777807e-01, 1.07364327e-01,
          1.09246463e-01, 2.55612314e-01, 8.68013278e-02, 1.99130386e-01,
          0., 0., 0., 0., 0., 0., 0., 0., 0., 7.37563297e-02,
          1.50959209e-01, 2.18127459e-01, 2.31225118e-01, 1.07859269e-01,
          1.08247519e-01, 3.22909132e-02, 1.86523318e-01, 1.21314272e-01,
          1.99898943e-01, 2.15183854e-01, 2.09922418e-01, 1.65812284e-01,
          1.02151334e-02, 0., 0., 0., 8.96883756e-02, 1.09668940e-01,
          1.33566916e-01, 2.39477921e-02, 8.72163996e-02, 5.37470728e-02,
          0., 0., 0., 3.49472766e-03, 1.55103374e-02, 3.55159968e-01,
          2.60266721e-01, 2.13990718e-01, 7.35445395e-02, 0.,
          2.39694845e-02, 3.68900076e-02, 3.69758718e-02 ]
      - [ 3.13458741e-01, 1.89517051e-01, 1.31737128e-01, 4.93644737e-02,
          1.05521865e-01, 7.41379559e-02, 7.07740784e-02, 1.12932742e-01,
          7.43968487e-02, 0., 0., 0., 0., 0., 0., 1.41194463e-01,
          2.51689434e-01, 1.29918039e-01, 5.32554947e-02, 7.42925555e-02,
          0., 7.81859681e-02, 1.20843910e-01, 0., 0., 0., 0., 0.,
          1.42852947e-01, 2.70373732e-01, 1.85409427e-01, 2.03152806e-01,
          0., 0., 8.64616781e-02, 2.08054632e-01, 1.19664885e-01,
          1.72781676e-01, 1.18850045e-01, 1.85586050e-01, 2.74640054e-01,
          4.57100011e-02, 0., 0., 0., 0., 0., 0., 0., 0., 0.,
          1.25391051e-01, 1.25993118e-01, 9.98430401e-02, 6.80317879e-02,
          1.07672535e-01, 2.88148582e-01, 1.92070216e-01, 2.27178529e-01,
          2.39462495e-01, 4.56129760e-03, 0., 3.83557868e-03, 0. ]
      - [ 7.47587755e-02, 3.61798406e-01, 4.96663712e-02, 0., 0., 0., 0.,
          0., 0., 1.74501151e-01, 5.05019166e-02, 0., 0., 0., 0.,
          3.74332964e-02, 1.26753360e-01, 2.30786696e-01, 3.54068913e-02,
          0., 1.40078649e-01, 1.07971840e-01, 9.18478221e-02,
          6.31088316e-02, 1.22634158e-01, 1.27904803e-01, 0.,
          1.21774137e-01, 2.74903804e-01, 1.09143481e-01, 1.02975525e-01,
          7.97937736e-02, 4.62696142e-02, 1.36391237e-01, 1.16614163e-01,
          1.10008709e-01, 6.97189495e-02, 9.87322405e-02, 1.21232301e-01,
          2.93094486e-01, 2.05861226e-01, 1.08775925e-02, 4.10144776e-02,
          9.56069157e-02, 4.70981449e-02, 7.65214115e-02, 5.99883012e-02,
          1.36660859e-01, 5.73736429e-02, 9.93620604e-02, 8.74878392e-02,
          1.11186840e-01, 0., 0., 7.20852092e-02, 3.44029903e-01,
          1.18445948e-01, 7.69642070e-02, 1.11400515e-01, 9.33341384e-02,
          1.64795041e-01, 1.24911070e-01, 2.12779611e-01, 1.74678177e-01 ]
      - [ 3.49638432e-01, 2.15025097e-01, 6.32231236e-02, 0.,
          4.34642136e-02, 0., 5.05870990e-02, 4.60284129e-02, 0., 0., 0.,
          0., 0., 0., 0., 0., 1.80431679e-01, 0., 0., 0., 0.,
          5.13639338e-02, 6.88358843e-02, 7.06973225e-02, 0.,
          7.13470653e-02, 6.03787601e-02, 0., 2.10746452e-02,
          1.91855013e-01, 1.62978157e-01, 3.22231293e-01, 0.,
          9.47978869e-02, 2.02680141e-01, 1.24171510e-01, 6.91710040e-02,
          9.48160738e-02, 1.75383449e-01, 2.15020046e-01, 2.41745934e-01,
          2.63092279e-01, 0., 0., 0., 0., 0., 0., 7.57877007e-02,
          8.21700022e-02, 6.69364184e-02, 4.85001653e-02, 8.51422846e-02,
          9.25273299e-02, 2.47977257e-01, 2.02909619e-01, 2.26759240e-01,
          1.94079518e-01, 1.18753798e-01, 2.00007826e-01, 1.51346743e-01,
          0., 7.17249960e-02, 8.17436278e-02 ]
      - [ 1.51931643e-01, 2.37063035e-01, 1.44200966e-01, 1.25091702e-01,
          0., 1.46447301e-01, 1.14373975e-01, 7.92813674e-02,
          1.08754963e-01, 9.46649387e-02, 1.26740277e-01, 4.77626808e-02,
          0., 6.92060143e-02, 1.25874624e-01, 1.79271415e-01,
          1.85597509e-01, 2.21306577e-01, 5.52689284e-02, 2.18153857e-02,
          0., 0., 5.48500419e-02, 6.04809932e-02, 5.13458066e-02,
          3.74049903e-03, 0., 1.23118728e-01, 1.30123988e-01,
          2.12826282e-01, 1.53019503e-01, 1.72658905e-01, 1.02669477e-01,
          9.81856510e-02, 5.00069410e-02, 2.24461302e-01, 8.68807510e-02,
          8.80451873e-02, 1.28411338e-01, 1.26653776e-01, 3.06710243e-01,
          8.04498717e-02, 0., 6.57428429e-02, 6.12418428e-02,
          6.60909116e-02, 7.05985501e-02, 1.71899721e-01, 6.01176098e-02,
          5.64438626e-02, 0., 7.60262087e-02, 6.38581365e-02, 0.,
          7.76390955e-02, 2.63757586e-01, 2.52427578e-01, 1.67563781e-01,
          1.65120855e-01, 1.21423103e-01, 4.60884981e-02, 4.45869975e-02,
          5.17375357e-02, 1.53011069e-01 ]
      - [ 3.76106724e-02, 1.94130465e-01, 1.99510723e-01, 1.97537333e-01,
          0., 0., 0., 0., 0., 3.32508842e-03, 8.54212120e-02,
          2.09381968e-01, 1.30526781e-01, 6.24125861e-02, 7.33185783e-02,
          7.97238424e-02, 8.03709179e-02, 3.24134856e-01, 1.76171139e-02,
          8.12320039e-02, 9.98610780e-02, 0., 8.37274864e-02,
          5.95389940e-02, 6.05228245e-02, 1.46838725e-01, 5.84909692e-02,
          2.27378935e-01, 1.28191963e-01, 9.09703001e-02, 8.82775038e-02,
          8.19175914e-02, 1.78384900e-01, 1.41621470e-01, 2.70579942e-02,
          1.59228623e-01, 9.45622697e-02, 1.05511881e-01, 1.10743172e-01,
          1.62755594e-01, 2.38257870e-01, 1.93453476e-01, 2.32780427e-02,
          0., 9.02716815e-02, 1.10920265e-01, 4.01550308e-02,
          6.67680427e-02, 0., 5.75922197e-03, 2.64529176e-02,
          2.92074591e-01, 1.09038383e-01, 8.91279131e-02, 8.84064883e-02,
          9.18832123e-02, 4.89433967e-02, 2.21352637e-01, 1.18821271e-01,
          3.04685116e-01, 3.49069200e-02, 0., 0., 0. ]
      - [ 1.90263376e-01, 3.18190873e-01, 9.95908231e-02, 0., 0., 0., 0.,
          0., 7.33465701e-02, 2.49707267e-01, 3.42818983e-02, 0., 0., 0.,
          8.61810148e-03, 5.36112078e-02, 1.19284861e-01, 2.46553153e-01,
          0., 4.08403613e-02, 1.78181157e-01, 8.57112855e-02,
          6.43870011e-02, 5.91162629e-02, 1.04503617e-01, 1.13611363e-01,
          7.34273568e-02, 2.50868380e-01, 1.78233862e-01, 6.97087571e-02,
          8.30131620e-02, 6.23272955e-02, 2.06866741e-01, 1.03998981e-01,
          9.11617801e-02, 1.18455507e-01, 8.85470212e-02, 8.98432061e-02,
          1.17713004e-01, 1.41366422e-01, 2.55697221e-01, 1.75530136e-01,
          2.44067032e-02, 0., 0., 0., 0., 1.39872488e-02, 1.79132327e-01,
          1.23520076e-01, 7.28654265e-02, 1.20937675e-01, 1.02548443e-01,
          1.09805375e-01, 1.26777932e-01, 1.49218038e-01, 1.60584122e-01,
          1.69312164e-01, 1.72232121e-01, 1.73035502e-01, 1.07748106e-01,
          9.67996791e-02, 1.23499908e-01, 1.28950596e-01 ]
      - [ 1.16649434e-01, 7.75840431e-02, 1.39599174e-01, 1.73658922e-01,
          9.70053747e-02, 1.27609223e-01, 1.74588695e-01, 3.85069102e-02,
          0., 8.96299034e-02, 1.11323893e-01, 9.61223841e-02,
          9.67545137e-02, 1.46616578e-01, 1.92100763e-01, 1.35605425e-01,
          1.34456396e-01, 1.31523579e-01, 1.74184680e-01, 1.53705314e-01,
          1.27469778e-01, 7.85188898e-02, 9.27379504e-02, 5.96353784e-02,
          0., 9.66770202e-02, 1.77570924e-01, 9.88511145e-02,
          1.99063897e-01, 1.52304411e-01, 1.08937271e-01, 9.89258513e-02,
          1.32005721e-01, 1.52961448e-01, 6.03201613e-02, 1.09400436e-01,
          2.05586821e-01, 1.32276371e-01, 1.20639473e-01, 1.10849470e-01,
          1.85984552e-01, 1.56455055e-01, 1.07474988e-02, 4.86526191e-02,
          1.38821945e-01, 5.96882403e-02, 9.57147703e-02, 0.,
          3.85989808e-02, 1.13147005e-01, 8.22332725e-02, 1.62989497e-01,
          3.42709906e-02, 6.73609823e-02, 1.64844349e-01, 1.86891153e-01,
          1.17627487e-01, 8.96761194e-02, 1.43651769e-01, 1.97385177e-01,
          1.74927294e-01, 1.17432244e-01, 1.17079809e-01, 8.14139992e-02 ]
      - [ 1.93975493e-01, 1.98308304e-01, 1.80967897e-01, 1.24115191e-01,
          1.19630203e-01, 0., 8.48913193e-02, 1.54877886e-01,
          1.23550497e-01, 1.16926700e-01, 1.07397504e-01, 6.66006580e-02,
          4.90139760e-02, 0., 4.10817601e-02, 1.35638639e-01,
          7.77900368e-02, 8.83154571e-02, 5.40689230e-02, 1.87219366e-01,
          1.45238608e-01, 1.84635356e-01, 4.03537080e-02, 0., 0., 0.,
          1.53437378e-02, 1.67260170e-01, 2.55941749e-01, 2.13699549e-01,
          1.91885307e-01, 8.82979631e-02, 1.41631156e-01, 5.92062585e-02,
          6.74106032e-02, 9.95939225e-02, 1.45886227e-01, 1.24236517e-01,
          1.53320834e-01, 2.30959147e-01, 1.47646740e-01, 0., 0., 0.,
          3.57794613e-02, 6.18599728e-02, 5.69071881e-02, 1.66585267e-01,
          1.14695430e-01, 7.52594471e-02, 1.76912248e-01, 0., 0.,
          1.21004265e-02, 1.25254020e-01, 1.44512638e-01, 2.33873487e-01,
          1.64897159e-01, 1.57726333e-01, 1.86365217e-01, 9.73601416e-02,
          6.30848110e-02, 8.74563530e-02, 1.02092505e-01 ]
      - [ 1.82053998e-01, 2.49030575e-01, 1.07288212e-01, 8.82731378e-02,
          0., 0., 0., 0., 9.47578400e-02, 1.73933610e-01, 1.87214687e-02,
          2.90228035e-02, 0., 0., 0., 5.10808341e-02, 1.39621705e-01,
          1.85498208e-01, 2.15999559e-02, 1.07690610e-01, 8.36079866e-02,
          1.00677386e-01, 6.39801770e-02, 7.76860565e-02, 9.85995382e-02,
          0., 4.61549647e-02, 1.01829320e-01, 2.20155552e-01,
          1.47534758e-01, 1.25357211e-01, 1.31454259e-01, 1.88893944e-01,
          1.35765880e-01, 9.27172154e-02, 1.26708731e-01, 1.30596593e-01,
          1.11103602e-01, 1.11304238e-01, 9.24215391e-02, 3.09156716e-01,
          1.14156000e-01, 4.24879938e-02, 0., 5.85035980e-02, 0.,
          5.85049465e-02, 1.05365254e-01, 1.15434535e-01, 1.28392115e-01,
          1.00650653e-01, 0., 1.20662607e-01, 1.85562864e-01,
          2.22892448e-01, 1.55971691e-01, 1.83240235e-01, 1.40277997e-01,
          1.52022272e-01, 1.82659283e-01, 2.06083596e-01, 1.36039406e-01,
          1.46393970e-01, 1.06267862e-01 ]
      - [ 3.38406444e-01, 2.69176662e-01, 4.74582911e-02, 0., 0., 0., 0.,
          6.95457235e-02, 6.03219420e-02, 4.09951173e-02, 0., 0., 0., 0.,
          0., 0., 2.10381329e-01, 1.21571720e-01, 3.65347639e-02,
          6.13778867e-02, 0., 0., 2.88225207e-02, 6.05476834e-02, 0., 0.,
          0., 4.34561111e-02, 1.92190319e-01, 1.91834360e-01,
          1.40914932e-01, 2.32147634e-01, 1.41818270e-01, 8.59617293e-02,
          1.04517713e-01, 1.20409854e-01, 1.18596278e-01, 1.55862615e-01,
          1.23005614e-01, 2.22745761e-01, 3.07570606e-01, 1.84115112e-01,
          0., 0., 0., 0., 0., 0., 0., 2.61291433e-02, 4.23635915e-02,
          1.34744257e-01, 1.55611396e-01, 1.64114162e-01, 2.02267885e-01,
          1.42983869e-01, 1.36322930e-01, 1.48537040e-01, 2.75985837e-01,
          2.18997434e-01, 0., 0., 9.93856881e-03, 7.94387329e-03 ]
      - [ 1.37790814e-01, 1.75081745e-01, 2.37521768e-01, 1.47108734e-01,
          4.99668643e-02, 8.99075270e-02, 5.86480089e-02, 8.16206485e-02,
          9.02177393e-02, 8.16720501e-02, 1.01614766e-01, 9.22836363e-02,
          1.14490196e-01, 1.30734146e-01, 1.23690054e-01, 1.61328003e-01,
          2.64148414e-01, 1.67239830e-01, 0., 0., 5.46800084e-02, 0., 0.,
          0., 2.78654583e-02, 1.10404745e-01, 9.22477171e-02,
          9.93716419e-02, 8.29624608e-02, 1.75888017e-01, 1.95526108e-01,
          1.53641224e-01, 1.44092083e-01, 8.02475810e-02, 8.89979899e-02,
          0., 1.82076201e-01, 1.80501536e-01, 2.09632084e-01,
          2.37949178e-01, 1.44535437e-01, 0., 7.73689374e-02,
          1.08558424e-01, 7.44963214e-02, 7.78487921e-02, 7.42133111e-02,
          1.00710742e-01, 1.04010418e-01, 0., 5.63620552e-02,
          8.07937235e-02, 8.12574252e-02, 0., 0., 0., 2.48284206e-01,
          3.72983217e-01, 0., 0., 3.31507027e-02, 4.40022983e-02,
          9.55204144e-02, 8.55355039e-02 ]
      - [ 1.60631895e-01, 1.83918372e-01, 2.58523554e-01, 1.58470958e-01,
          1.16282880e-01, 0., 0., 0., 0., 0., 1.67455643e-01,
          1.49584815e-01, 1.30804971e-01, 1.06005669e-01, 1.00838497e-01,
          6.65973723e-02, 5.79249449e-02, 1.04232408e-01, 1.83921039e-01,
          8.95797461e-02, 1.32327989e-01, 1.10851593e-01, 1.42885208e-01,
          0., 0., 0., 8.52947533e-02, 1.80233702e-01, 2.03195393e-01,
          1.38463899e-01, 1.95449248e-01, 1.45668566e-01, 7.57318586e-02,
          9.06823948e-02, 0., 0., 1.26005054e-01, 2.46975631e-01,
          1.98010474e-01, 1.35268062e-01, 1.66672036e-01, 4.64685597e-02,
          0., 8.52365792e-02, 4.76448238e-02, 6.32157698e-02, 0.,
          8.27398971e-02, 1.24184422e-01, 2.19545051e-01, 6.79029450e-02,
          0., 1.47925997e-02, 0., 1.44412993e-02, 1.18092120e-01,
          1.94580138e-01, 2.88397610e-01, 1.72186613e-01, 1.07102089e-01,
          9.66509879e-02, 7.57683292e-02, 1.08075626e-01, 7.36996531e-02 ]
      - [ 2.74327368e-01, 2.21133292e-01, 1.09201171e-01, 9.42175165e-02,
          1.33952141e-01, 1.97942078e-01, 1.28034040e-01, 1.11454196e-01,
          9.13824886e-02, 0., 6.59409584e-03, 0., 0., 0., 0., 0.,
          2.25131035e-01, 5.39097600e-02, 0., 1.13459174e-02,
          2.22746525e-02, 0., 1.13360630e-02, 0., 0., 4.59259376e-03, 0.,
          0., 2.64775217e-01, 2.10474357e-01, 1.84733123e-01,
          2.10192963e-01, 1.77711949e-01, 1.69206813e-01, 1.49299949e-01,
          1.39929056e-01, 1.25005171e-01, 1.60765707e-01, 2.24399924e-01,
          1.72112033e-01, 1.72910020e-01, 1.34092882e-01, 0., 0.,
          9.08615813e-03, 0., 0., 0., 0., 2.23912355e-02, 1.39601091e-02,
          2.70659681e-02, 0., 0., 8.68684575e-02, 1.96075231e-01,
          1.79790288e-01, 2.68193901e-01, 2.03150898e-01, 1.83438748e-01,
          1.18342370e-01, 0., 3.81741822e-02, 9.07560252e-03 ]
      - [ 2.67638296e-01, 2.22092941e-01, 1.20482251e-01, 6.30127117e-02,
          0., 0., 7.25415424e-02, 8.25742632e-02, 1.18802041e-01,
          2.72002146e-02, 0., 0., 0., 0., 0., 1.17008351e-01,
          3.70951518e-02, 9.58988443e-02, 5.41506410e-02, 2.64397204e-01,
          0., 0., 0., 0., 3.37053612e-02, 3.13483621e-03, 0.,
          2.32514769e-01, 2.02186808e-01, 1.75658181e-01, 1.50876790e-01,
          1.24641888e-01, 0., 1.88990757e-02, 0., 1.17717624e-01,
          2.43186638e-01, 1.91567421e-01, 1.11250021e-01, 3.38357501e-02,
          1.48603901e-01, 2.19549537e-01, 1.29204258e-01, 1.24315426e-01,
          1.44986093e-01, 0., 3.13483621e-03, 0., 4.76665795e-02,
          9.60653797e-02, 8.07399228e-02, 1.95931211e-01, 0.,
          1.94133282e-01, 1.74483910e-01, 1.90036014e-01, 8.49714056e-02,
          1.04929753e-01, 1.21236756e-01, 3.01458001e-01, 1.08115964e-01,
          9.94857550e-02, 8.81682485e-02, 1.02075174e-01 ]
      - [ 1.69336081e-01, 2.98868448e-01, 9.27980468e-02, 1.14426233e-01,
          6.27309680e-02, 9.80998874e-02, 2.88375095e-03, 0.,
          1.33680090e-01, 1.74334019e-01, 8.40339214e-02, 1.04573131e-01,
          1.71434544e-02, 0., 0., 0., 1.12579271e-01, 1.07875332e-01,
          1.11069329e-01, 1.10960066e-01, 1.28965266e-02, 1.17879719e-01,
          1.22513980e-01, 1.05983369e-01, 1.41484052e-01, 1.25112548e-01,
          1.29045779e-02, 1.05443105e-01, 1.43995747e-01, 1.86707675e-01,
          2.19356149e-01, 1.53169051e-01, 1.86994262e-02, 0., 0., 0., 0.,
          3.04966867e-01, 2.18452796e-01, 1.41717032e-01, 0., 0., 0., 0.,
          0., 2.58544445e-01, 9.92542878e-02, 9.02163014e-02,
          1.21898398e-01, 1.53956786e-01, 1.87917858e-01, 1.49048626e-01,
          0., 0., 5.76750189e-03, 1.30360276e-01, 1.27314717e-01,
          1.72212109e-01, 3.16304535e-01, 1.08431816e-01, 0., 0., 0., 0. ]
      - [ 1.72649369e-01, 2.16989011e-01, 1.89903647e-01, 1.76476434e-01,
          0., 0., 0., 0., 0., 1.95964426e-02, 1.05925493e-01,
          1.90239683e-01, 8.13673213e-02, 4.16463986e-02, 9.55570564e-02,
          8.50619525e-02, 1.73381150e-01, 1.18865520e-01, 9.46495011e-02,
          1.89792633e-01, 8.00981820e-02, 0., 0., 0., 0., 0., 0.,
          1.33481085e-01, 1.62643954e-01, 2.15128228e-01, 1.41126588e-01,
          1.32064298e-01, 1.01803869e-01, 1.27512842e-01, 3.71865705e-02,
          1.83189273e-01, 9.48174670e-02, 1.56878322e-01, 9.92378294e-02,
          1.26257926e-01, 1.82201222e-01, 2.87456304e-01, 0.,
          5.28587550e-02, 8.25892091e-02, 5.71324937e-02, 9.78208333e-02,
          0., 1.64340422e-01, 1.19904198e-01, 9.14509520e-02,
          3.79370414e-02, 0., 1.28009319e-01, 1.88248381e-01,
          2.50411868e-01, 1.50302663e-01, 1.75349340e-01, 2.08206624e-01,
          9.10364240e-02, 6.96355402e-02, 1.13820113e-01, 0.,
          1.10276364e-01 ]
      - [ 1.33880913e-01, 1.57867819e-01, 1.10676862e-01, 2.16441602e-01,
          9.72754657e-02, 1.24939755e-01, 0., 0., 7.72536173e-02,
          7.29263052e-02, 6.39348626e-02, 1.34413868e-01, 5.92065044e-02,
          1.40963420e-01, 1.48651734e-01, 7.04114586e-02, 1.39306054e-01,
          1.83449671e-01, 1.11290244e-02, 0., 9.28575397e-02,
          1.48078829e-01, 1.04053251e-01, 9.29126218e-02, 6.30717203e-02,
          1.77550361e-01, 1.04517400e-01, 9.30304155e-02, 1.57496095e-01,
          1.44070953e-01, 1.57254979e-01, 1.37661889e-01, 0., 0.,
          1.62250642e-02, 2.03043208e-01, 2.66542792e-01, 1.08304195e-01,
          1.11648627e-01, 9.20175537e-02, 1.20597675e-01, 1.03323199e-01,
          1.25857815e-01, 2.04617664e-01, 1.72179282e-01, 6.66389838e-02,
          4.07242142e-02, 1.65601764e-02, 8.59030113e-02, 8.12791213e-02,
          1.13707848e-01, 1.38946816e-01, 8.49863961e-02, 4.11089920e-02,
          2.11014107e-01, 1.64859295e-01, 9.68495011e-02, 1.31422579e-01,
          1.49641588e-01, 1.40776798e-01, 1.55445188e-01, 9.81456414e-02,
          1.98989585e-01, 9.14202109e-02 ]
      - [ 1.32116064e-01, 2.08972186e-01, 1.84245139e-01, 1.46032959e-01,
          1.11225002e-01, 8.10850710e-02, 1.20255962e-01, 0.,
          1.16249278e-01, 0., 1.75817400e-01, 0., 0., 0., 1.31594092e-01,
          1.15879089e-01, 3.05906504e-01, 5.35999537e-02, 0.,
          4.28374000e-02, 0., 0., 0., 0., 0., 0., 0., 0., 1.60103530e-01,
          1.98341101e-01, 1.56546354e-01, 1.21317975e-01, 9.66685563e-02,
          9.17061791e-02, 1.60817683e-01, 1.96139008e-01, 1.77413851e-01,
          1.48829699e-01, 2.38684431e-01, 1.56013340e-01, 1.29060194e-01,
          3.06710210e-02, 0., 1.45840198e-01, 9.27979574e-02,
          9.66625512e-02, 0., 8.03209916e-02, 1.77890047e-01,
          5.12360074e-02, 4.85617444e-02, 0., 0., 0., 0., 0.,
          2.83218920e-01, 3.82682830e-01, 9.33795050e-02, 0., 0.,
          7.81320184e-02, 9.95873734e-02, 6.49266168e-02 ]
      - [ 1.02051962e-02, 1.56179503e-01, 1.77937791e-01, 2.61537701e-01,
          0., 0., 0., 3.44778970e-02, 0., 8.63405243e-02, 1.90452516e-01,
          1.26213402e-01, 1.85250238e-01, 1.42749250e-01, 4.82698642e-02,
          1.22777611e-01, 2.22782388e-01, 2.44240850e-01, 0., 0., 0., 0.,
          0., 0., 3.95245552e-02, 8.89633968e-02, 0., 7.49241933e-02, 0.,
          7.66546726e-02, 9.96321440e-02, 1.26835704e-01, 1.77989215e-01,
          0., 0., 0., 2.26887330e-01, 1.77223563e-01, 1.57243028e-01,
          2.12725684e-01, 1.89539060e-01, 3.15975770e-02, 1.03549454e-02,
          2.76376959e-02, 1.29713520e-01, 1.35611743e-01, 1.12286657e-01,
          1.25961423e-01, 2.07787216e-01, 1.90567136e-01, 4.49724980e-02,
          0., 0., 0., 0., 0., 3.15876603e-01, 3.42116863e-01, 0., 0., 0.,
          0., 4.31795754e-02, 0. ]
      - [ 3.03207815e-01, 2.05059409e-01, 7.72236437e-02, 4.09226492e-02,
          0., 0., 2.12451145e-02, 7.04513788e-02, 2.02366844e-01,
          4.27233241e-02, 5.94316125e-02, 0., 0., 0., 3.31425220e-02,
          3.25409286e-02, 2.22291768e-01, 1.52793508e-02, 0., 0.,
          8.92172605e-02, 1.19558759e-01, 9.75605324e-02, 1.23373970e-01,
          2.09042251e-01, 4.28204797e-02, 0., 0., 1.73676342e-01,
          1.24972455e-01, 1.55325294e-01, 2.05270603e-01, 2.26575136e-02,
          8.99618790e-02, 0., 8.68048295e-02, 1.20168269e-01,
          1.50490671e-01, 1.89085856e-01, 1.92764431e-01, 2.22957090e-01,
          1.46182001e-01, 0., 0., 0., 4.19617556e-02, 8.91086012e-02,
          2.25652039e-01, 2.19582707e-01, 1.33678883e-01, 1.73450932e-01,
          1.20172113e-01, 0., 0., 5.07751759e-03, 1.62285045e-01,
          2.19953433e-01, 2.20420107e-01, 1.45493254e-01, 1.68842241e-01,
          9.39330459e-02, 0., 0., 0. ]
      - [ 9.42431390e-02, 1.04037166e-01, 1.74717158e-01, 2.17072874e-01,
          1.11160830e-01, 8.59176964e-02, 6.87073246e-02, 9.14527848e-02,
          2.84328870e-02, 5.95264435e-02, 8.93151760e-02, 1.34110942e-01,
          1.66555308e-02, 1.03488252e-01, 1.61073357e-01, 1.18891537e-01,
          1.82575226e-01, 1.38205558e-01, 0., 4.31684079e-03,
          1.28673047e-01, 1.16788402e-01, 6.11568913e-02, 8.83607939e-02,
          1.15400232e-01, 1.03618361e-01, 9.86433551e-02, 1.00893550e-01,
          1.84459060e-01, 1.55608699e-01, 1.65449888e-01, 1.41092286e-01,
          0., 4.08261595e-03, 3.21144797e-02, 2.73842394e-01,
          2.00973675e-01, 1.11250214e-01, 8.67456347e-02, 6.57392368e-02,
          9.52090397e-02, 9.48362574e-02, 1.14297390e-01, 2.87760019e-01,
          8.78625065e-02, 0., 0., 0., 0., 8.53659585e-02, 1.10201091e-01,
          1.06903717e-01, 1.01846360e-01, 1.52931839e-01, 1.97048396e-01,
          1.52702734e-01, 1.12577774e-01, 1.32948443e-01, 1.75708309e-01,
          1.59467325e-01, 1.14700429e-01, 1.28103197e-01, 1.63598940e-01,
          1.12746753e-01 ]
      - [ 7.45821074e-02, 1.20461382e-01, 1.44678235e-01, 1.66296542e-01,
          2.44315594e-01, 2.46160515e-02, 0., 2.69889403e-02, 0., 0.,
          3.37135643e-02, 1.48148969e-01, 2.35268340e-01, 1.27049550e-01,
          1.04973242e-01, 7.47195259e-02, 6.26145378e-02, 8.90805796e-02,
          8.95212740e-02, 1.42545864e-01, 2.08930925e-01, 1.07572131e-01,
          1.17508397e-01, 9.04214233e-02, 2.44283620e-02, 0.,
          8.16089567e-03, 1.40152305e-01, 2.55354673e-01, 1.51738614e-01,
          1.22641146e-01, 1.11711405e-01, 2.97742821e-02, 6.30801246e-02,
          6.18174411e-02, 1.53204024e-01, 1.44836083e-01, 2.45634049e-01,
          1.24899760e-01, 1.25642568e-01, 5.59462309e-02, 1.28919467e-01,
          6.00850657e-02, 0., 1.86823532e-01, 8.12562704e-02,
          5.73918186e-02, 5.99996150e-02, 8.78597647e-02, 4.76650447e-02,
          8.31019878e-02, 2.38327131e-01, 0., 1.44456327e-01,
          1.11806862e-01, 1.16382375e-01, 6.74886927e-02, 8.75365958e-02,
          1.88812450e-01, 2.52629578e-01, 1.64026380e-01, 1.48845851e-01,
          8.77731740e-02, 0. ]
      - [ 1.53444722e-01, 3.82169396e-01, 1.13411747e-01, 0., 0., 0.,
          1.98003128e-02, 0., 8.25505257e-02, 2.50993431e-01,
          2.11119670e-02, 0., 0., 0., 0., 1.14240963e-02, 1.61758199e-01,
          7.99275488e-02, 1.25609279e-01, 8.63978490e-02, 7.19435364e-02,
          5.86457439e-02, 4.11284752e-02, 8.68658200e-02, 9.10643861e-02,
          0., 0., 0., 2.55485475e-01, 1.68890655e-01, 1.36365622e-01,
          1.86123446e-01, 2.80143600e-02, 2.45722737e-02, 1.76590055e-01,
          3.10131401e-01, 1.69633731e-01, 1.70550749e-01, 1.34202421e-01,
          1.30361676e-01, 1.21548802e-01, 2.74771929e-01, 6.78103194e-02,
          0., 2.34583654e-02, 8.11661594e-03, 0., 0., 0., 8.62088203e-02,
          4.89352122e-02, 1.08637307e-02, 1.52123356e-02, 0., 0., 0., 0.,
          2.78426021e-01, 2.70309001e-01, 1.67738050e-01, 1.08196110e-01,
          8.11955426e-03, 0., 0. ]
      - [ 1.74029157e-01, 2.42811874e-01, 1.89952075e-01, 1.80711582e-01,
          8.26643109e-02, 9.01357606e-02, 0., 6.55299127e-02,
          7.03338087e-02, 9.76513699e-02, 1.76383436e-01, 1.97211117e-01,
          3.15564051e-02, 5.63719384e-02, 0., 1.02461971e-01,
          6.29666746e-02, 9.01388824e-02, 1.26010239e-01, 1.43895939e-01,
          1.26578063e-01, 7.43029863e-02, 6.57685939e-03, 0., 0.,
          1.23041775e-02, 1.28705919e-01, 2.00833559e-01, 1.48670182e-01,
          9.71045792e-02, 1.60987467e-01, 9.06019062e-02, 0., 0., 0.,
          6.64465427e-02, 2.88368672e-01, 1.48174286e-01, 1.96737230e-01,
          1.01673052e-01, 2.48020273e-02, 9.10387561e-02, 8.51707682e-02,
          1.58921942e-01, 2.13466406e-01, 9.61563587e-02, 5.97029813e-02,
          0., 1.47052467e-01, 1.50490239e-01, 1.40146181e-01, 0., 0.,
          1.70930382e-02, 2.96700746e-02, 2.20439732e-01, 1.54428065e-01,
          2.21138358e-01, 1.96697623e-01, 5.89946732e-02, 0.,
          3.96772735e-02, 6.32122383e-02, 1.95209891e-01 ]
      - [ 1.63723797e-01, 2.22957626e-01, 1.41389772e-01, 1.25518054e-01,
          0., 0., 0., 0., 1.36664599e-01, 1.66471735e-01, 1.17736928e-01,
          1.40981331e-01, 1.22377761e-02, 6.73496574e-02, 9.73010212e-02,
          1.05669178e-01, 2.17472568e-01, 2.59142697e-01, 0.,
          4.92455885e-02, 0., 5.32855093e-02, 0., 0., 0., 1.41749214e-02,
          8.67548510e-02, 1.75651759e-01, 1.10878296e-01, 7.73684755e-02,
          1.20380014e-01, 8.90627429e-02, 2.55672485e-01, 0.,
          3.15998569e-02, 1.29536748e-01, 1.46652848e-01, 1.11301698e-01,
          1.74511716e-01, 1.69116795e-01, 2.85595536e-01, 4.20520231e-02,
          0., 0., 1.18576042e-01, 8.59205425e-02, 1.03629559e-01,
          1.14377700e-01, 1.27529204e-01, 8.50654170e-02, 0., 0.,
          1.95527509e-01, 1.52582496e-01, 8.46547037e-02, 1.40253901e-01,
          2.06374869e-01, 2.10502341e-01, 1.05504297e-01, 1.96737945e-01,
          1.70513079e-01, 3.05978674e-02, 0., 0. ]
      - [ 1.29693657e-01, 1.37231395e-01, 2.81350404e-01, 1.92348763e-01,
          6.93889707e-02, 0., 7.71717504e-02, 4.96051870e-02,
          4.95779999e-02, 8.41314197e-02, 1.50306374e-01, 1.63469806e-01,
          7.96373636e-02, 0., 0., 1.26512945e-01, 3.37112010e-01,
          1.05371475e-01, 1.77837685e-02, 0., 0., 0., 0., 0.,
          6.17108680e-02, 5.76582784e-03, 1.04449116e-01, 2.17167765e-01,
          6.55635595e-02, 8.89179111e-02, 8.68437514e-02, 9.41387638e-02,
          1.15298510e-01, 9.98408049e-02, 1.39484778e-02, 1.78917348e-01,
          1.86345860e-01, 1.48782611e-01, 1.40711844e-01, 1.37402147e-01,
          1.67689532e-01, 1.47959411e-01, 6.23681024e-02, 1.23960622e-01,
          1.14136972e-01, 6.22297749e-02, 8.98242667e-02, 4.46812809e-02,
          2.69366741e-01, 5.97593747e-02, 0., 0., 3.96321267e-02, 0., 0.,
          0., 3.58903825e-01, 2.83979237e-01, 3.97081822e-02, 0., 0., 0.,
          0., 4.69275974e-02 ]
      - [ 1.06534712e-01, 2.61292219e-01, 2.87160754e-01, 2.71962341e-02,
          0., 1.26061007e-01, 5.55545725e-02, 1.18994676e-01,
          3.82167883e-02, 1.72630236e-01, 0., 1.21613033e-01,
          6.42576218e-02, 4.39172089e-02, 0., 1.63020547e-02,
          9.94397476e-02, 2.61430204e-01, 0., 0., 0., 0., 0., 0.,
          1.96197815e-02, 0., 1.29389524e-01, 1.98610201e-01,
          1.76239520e-01, 1.67070299e-01, 1.83578625e-01, 1.07724093e-01,
          6.56385794e-02, 2.42903024e-01, 1.47608697e-01, 1.16406910e-01,
          1.42890036e-01, 1.70781404e-01, 1.03175282e-01, 1.24544673e-01,
          1.37169078e-01, 2.37813190e-01, 1.56559199e-01, 0., 0., 0., 0.,
          0., 5.11718616e-02, 1.35850072e-01, 7.79422075e-02,
          6.55330047e-02, 9.02425870e-02, 6.34303316e-02, 0., 0.,
          1.81358099e-01, 3.58005524e-01, 1.20368376e-01, 2.68774703e-02,
          0., 0., 8.34541097e-02, 1.07063390e-01 ]
      - [ 2.02288002e-01, 1.70551330e-01, 1.83131620e-01, 1.88976988e-01,
          1.03686459e-01, 1.10593870e-01, 5.52154370e-02, 9.54706147e-02,
          0., 1.37807250e-01, 1.37364790e-01, 9.68218967e-02, 0., 0.,
          1.30719543e-01, 1.17550239e-01, 3.00630629e-01, 1.18663542e-01,
          0., 0., 0., 0., 0., 0., 9.91725847e-02, 1.10109672e-01,
          5.93145303e-02, 7.19604269e-02, 1.80764526e-01, 1.89265370e-01,
          1.37349769e-01, 1.38420925e-01, 0., 1.55338824e-01,
          1.78332597e-01, 1.30413309e-01, 1.70259714e-01, 1.46027341e-01,
          1.66132778e-01, 1.78977981e-01, 1.56086072e-01, 1.35738552e-01,
          4.82880361e-02, 1.29677877e-01, 1.13954522e-01, 8.80843326e-02,
          6.10527508e-02, 6.95447400e-02, 7.56383091e-02, 7.37283304e-02,
          2.46730316e-02, 4.95895706e-02, 2.21810862e-02, 4.42196280e-02,
          6.54547587e-02, 8.99675563e-02, 3.16546977e-01, 2.58134693e-01,
          6.18987568e-02, 6.09239899e-02, 6.73485547e-02, 4.17142585e-02,
          1.00750543e-01, 1.08776808e-01 ]
      - [ 3.04265767e-01, 2.52813041e-01, 2.04342995e-02, 0.,
          5.39598763e-02, 0., 8.99188146e-02, 0., 1.06214374e-01,
          1.29539847e-01, 7.53930062e-02, 0., 0., 0., 0., 5.35317212e-02,
          2.05465421e-01, 0., 0., 7.37833381e-02, 8.35063159e-02,
          7.64639005e-02, 7.48032555e-02, 1.11593299e-01, 2.11645111e-01,
          3.69494259e-02, 0., 4.78630625e-02, 1.29217565e-01,
          1.45490974e-01, 1.98613673e-01, 1.96470574e-01, 0.,
          6.48042485e-02, 1.10274822e-01, 1.32751346e-01, 1.87153623e-01,
          1.66491270e-01, 1.98999479e-01, 1.54763296e-01, 1.23144157e-01,
          2.36242145e-01, 3.49767543e-02, 1.08694069e-01, 1.13766626e-01,
          1.11396000e-01, 6.70020729e-02, 0., 1.17844164e-01,
          1.97394758e-01, 1.70988128e-01, 5.52762710e-02, 8.98266397e-03,
          1.84201710e-02, 0., 1.24681212e-01, 2.12033123e-01,
          2.32400492e-01, 2.26599455e-01, 1.11257821e-01, 0., 0.,
          4.51048873e-02, 1.12325378e-01 ]
      - [ 1.15608580e-01, 2.11309135e-01, 1.50321320e-01, 1.50441676e-01,
          1.19816534e-01, 0., 2.15302985e-02, 1.18782096e-01,
          1.82535827e-01, 1.56915277e-01, 7.14747757e-02, 6.67930916e-02,
          1.06030844e-01, 0., 3.76448371e-02, 1.85784727e-01,
          1.60096988e-01, 2.41884887e-01, 0., 9.79588926e-02,
          1.28622845e-01, 7.45239481e-02, 7.02182129e-02, 0.,
          5.31136692e-02, 7.24622831e-02, 1.00745931e-01, 5.89969158e-02,
          2.02371836e-01, 1.51504591e-01, 1.79196253e-01, 1.03846788e-01,
          1.07615940e-01, 6.60674796e-02, 1.47164047e-01, 0.,
          1.16059944e-01, 2.89597273e-01, 1.27861053e-01, 6.76244646e-02,
          1.38293505e-01, 1.68936715e-01, 1.82592757e-02, 3.70382555e-02,
          0., 1.40882149e-01, 1.57999903e-01, 1.47879943e-01,
          1.13005780e-01, 8.12360719e-02, 1.44491345e-01, 0., 0., 0.,
          3.69724184e-02, 0., 1.81547508e-01, 3.74226570e-01,
          4.07154374e-02, 0., 0., 0., 9.15214121e-02, 8.54613408e-02 ]
      - [ 2.75582433e-01, 1.83740795e-01, 9.86599475e-02, 1.70501649e-01,
          1.57065138e-01, 1.22824110e-01, 1.63583979e-01, 1.08149432e-01,
          1.95597574e-01, 0., 0., 0., 0., 0., 0., 0., 2.46662647e-01,
          1.03642996e-02, 1.32249910e-02, 0., 2.89220437e-02, 0.,
          8.78965668e-03, 0., 0., 1.12046581e-02, 4.04259935e-02,
          2.58854121e-01, 1.50921717e-01, 1.55246541e-01, 1.61847457e-01,
          1.40169770e-01, 8.26360285e-03, 2.12160304e-01, 2.33239070e-01,
          2.06729650e-01, 1.03617802e-01, 8.19871575e-02, 9.99445468e-02,
          1.14124358e-01, 2.34922484e-01, 1.73180357e-01, 0., 0.,
          4.64696530e-03, 0., 0., 0., 1.74516454e-01, 1.71512365e-02, 0.,
          0., 0., 0., 0., 0., 2.16189727e-01, 3.30743641e-01,
          1.27720699e-01, 1.11429349e-01, 1.00807294e-01, 7.36948773e-02,
          9.30751190e-02, 6.11427799e-02 ]
      - [ 1.37974754e-01, 1.56031847e-01, 1.07098475e-01, 2.13160902e-01,
          1.63033813e-01, 0., 0., 0., 0., 0., 0., 0., 2.65870720e-01,
          9.97938290e-02, 8.66505653e-02, 9.49364081e-02, 1.68363407e-01,
          2.84346819e-01, 1.77995279e-01, 0., 0., 0., 0., 0.,
          3.85548361e-02, 0., 1.33182555e-01, 1.11111529e-01,
          1.41276449e-01, 1.66594058e-01, 1.42639205e-01, 1.36091501e-01,
          1.64034247e-01, 1.13916948e-01, 1.10754790e-02, 0.,
          1.87457949e-01, 1.79216191e-01, 1.30297929e-01, 1.52506471e-01,
          1.71139777e-01, 2.40151942e-01, 0., 0., 0., 1.19982220e-01,
          7.78529122e-02, 9.62696820e-02, 6.23363294e-02, 1.21859990e-01,
          3.22160982e-02, 0., 0., 0., 2.08065286e-01, 1.43335640e-01,
          2.09836900e-01, 2.73953974e-01, 1.79657623e-01, 5.05430400e-02,
          0., 7.79592395e-02, 4.88563664e-02, 8.21864828e-02 ]
      - [ 1.17772326e-01, 1.40036732e-01, 1.47883311e-01, 2.56944120e-01,
          0., 0., 1.12990730e-01, 1.02905005e-01, 8.09196979e-02,
          1.31123021e-01, 1.17031008e-01, 1.50606185e-01, 0.,
          3.03587057e-02, 1.37837440e-01, 1.35308623e-01, 9.18169226e-03,
          1.60058364e-02, 0., 2.89614536e-02, 1.25425816e-01,
          1.18788280e-01, 1.08552866e-01, 0., 0., 1.87958274e-02,
          1.52918156e-02, 0., 3.68914455e-02, 1.66046530e-01,
          2.55265862e-01, 2.51069605e-01, 1.35380387e-01, 4.78820577e-02,
          3.97608429e-02, 1.51437506e-01, 2.27145001e-01, 1.41444489e-01,
          1.77947894e-01, 1.59824461e-01, 1.39452457e-01, 4.12696926e-03,
          0., 1.47479728e-01, 1.22380495e-01, 9.13313925e-02,
          9.82279778e-02, 1.48553759e-01, 1.25125377e-02, 6.70343190e-02,
          1.29683942e-01, 1.86575085e-01, 7.20487311e-02, 7.19726682e-02,
          1.30451694e-01, 1.66573539e-01, 1.53646365e-01, 1.48579732e-01,
          1.96142167e-01, 2.80860662e-01, 1.08425789e-01, 0., 0., 0. ]
      - [ 1.39047310e-01, 1.47004992e-01, 2.47041777e-01, 2.28099048e-01,
          1.68617163e-02, 8.61399993e-02, 4.95897606e-02, 8.66974816e-02,
          3.09365988e-02, 5.88523969e-02, 7.48653561e-02, 6.05851375e-02,
          0., 0., 4.48117517e-02, 2.32061669e-01, 7.16682896e-02,
          1.01587549e-01, 8.66512656e-02, 1.20858543e-01, 0.,
          2.56166663e-02, 1.90905780e-02, 2.12805681e-02, 2.43740901e-02,
          2.12141424e-02, 2.58316100e-02, 1.53299449e-02, 1.46313719e-02,
          3.14979672e-01, 2.69481957e-01, 9.97703075e-02, 0.,
          7.32218027e-02, 4.30767126e-02, 2.00515345e-01, 2.30328351e-01,
          1.76237255e-01, 2.62140185e-01, 1.50221586e-01, 1.07823662e-01,
          1.15226500e-01, 7.33587220e-02, 5.10715432e-02, 9.03662443e-02,
          9.67589989e-02, 5.58826178e-02, 5.99994883e-02, 0., 0.,
          2.56726444e-02, 2.84567848e-02, 2.79576853e-02, 0.,
          4.96364012e-02, 2.45033503e-01, 1.54543743e-01, 1.64367542e-01,
          2.66527861e-01, 1.31603107e-01, 1.68575674e-01, 1.51152238e-01,
          2.29677707e-02, 0. ]
      - [ 8.35902914e-02, 1.07106589e-01, 1.89060614e-01, 2.55252033e-01,
          1.61844388e-01, 5.41261472e-02, 2.99691390e-02, 0., 0.,
          3.40809263e-02, 1.77157313e-01, 1.52117774e-01, 7.78036565e-02,
          1.01672806e-01, 9.49970484e-02, 3.08745094e-02, 1.21038437e-01,
          1.91407740e-01, 1.05498306e-01, 8.34786892e-02, 1.13694601e-01,
          9.76155624e-02, 6.47566095e-02, 9.10462439e-02, 0.,
          9.45542082e-02, 1.34460419e-01, 1.38002962e-01, 1.93883374e-01,
          1.82079494e-01, 1.57228336e-01, 1.41310707e-01, 1.91181317e-01,
          7.60088116e-02, 3.68173048e-02, 9.85673219e-02, 1.70324758e-01,
          1.67358950e-01, 1.60401523e-01, 1.93490356e-01, 1.49102643e-01,
          0., 1.99094974e-02, 1.05745293e-01, 1.06977314e-01,
          9.23375860e-02, 8.93343687e-02, 7.05922991e-02, 9.15865675e-02,
          8.92329291e-02, 6.91761598e-02, 8.84127617e-02, 1.52283490e-01,
          1.22591875e-01, 1.43223867e-01, 8.48617330e-02, 1.27696574e-01,
          2.33264685e-01, 1.45278126e-01, 1.74968794e-01, 1.78012341e-01,
          6.16138801e-02, 9.80094075e-02, 0. ]
      - [ 1.46763906e-01, 1.80563703e-01, 9.63119492e-02, 2.60914326e-01,
          3.71256582e-02, 7.41145909e-02, 1.01516806e-01, 2.91489046e-02,
          0., 6.27757981e-02, 0., 9.34452266e-02, 1.37335122e-01,
          4.11164984e-02, 0., 2.72538792e-02, 3.30082402e-02,
          8.53623524e-02, 6.68781176e-02, 1.42221123e-01, 1.24505654e-01,
          8.03738609e-02, 7.40169212e-02, 0., 0., 2.81976573e-02,
          5.85204624e-02, 1.44287705e-01, 2.05336288e-01, 2.36932799e-01,
          1.49922594e-01, 1.28931135e-01, 4.69599012e-03, 1.67701058e-02,
          3.76909748e-02, 3.06098461e-01, 1.27699152e-01, 1.40120655e-01,
          6.19047768e-02, 1.16901085e-01, 6.28886968e-02, 7.72912204e-02,
          1.36770204e-01, 3.33798349e-01, 0., 0., 0., 0., 4.60920334e-02,
          7.24298954e-02, 1.04823835e-01, 1.43662170e-01, 1.61437526e-01,
          2.06760421e-01, 2.14679882e-01, 9.08901915e-02, 7.60475472e-02,
          1.08246699e-01, 1.30910560e-01, 1.67839497e-01, 2.63273686e-01,
          7.14885145e-02, 7.24635497e-02, 0. ]
      - [ 1.69263184e-01, 2.05092788e-01, 2.00809419e-01, 1.05509005e-01,
          9.54474509e-02, 0., 0., 4.70598452e-02, 1.58380017e-01,
          1.97600260e-01, 1.38399705e-01, 2.28854977e-02, 0., 0., 0., 0.,
          1.58477187e-01, 2.03339495e-02, 0., 1.96730778e-01,
          7.16621801e-02, 9.03684571e-02, 9.72880721e-02, 9.54226702e-02,
          0., 2.12737974e-02, 0., 1.92145333e-01, 1.67178348e-01,
          1.24698363e-01, 1.53108492e-01, 1.89064339e-01, 2.47557998e-01,
          1.93655685e-01, 8.52808803e-02, 9.95485559e-02, 8.09354186e-02,
          9.10525545e-02, 9.81718078e-02, 8.98759440e-02, 2.97822535e-01,
          6.61060363e-02, 7.45080039e-02, 0., 0., 0., 0., 2.21991092e-02,
          2.14426294e-01, 1.31092757e-01, 1.03632465e-01, 8.14599767e-02,
          1.64205022e-02, 0., 3.74473035e-02, 7.14015514e-02,
          3.56810212e-01, 1.70795679e-01, 5.73202670e-02, 1.06306888e-01,
          1.04556181e-01, 9.85556096e-02, 7.68596604e-02, 1.18161336e-01 ]
      - [ 9.79134068e-02, 1.08125880e-01, 1.86742738e-01, 3.41571301e-01,
          9.05409269e-03, 0., 0., 0., 0., 0., 4.14359197e-02,
          2.57895142e-01, 6.60091639e-02, 0., 0., 0., 1.75882131e-01,
          9.75353047e-02, 0., 0., 4.04911349e-03, 0., 0., 0., 0.,
          8.34023114e-03, 6.95159510e-02, 2.40629807e-01, 9.62544829e-02,
          1.16356567e-01, 1.40245527e-01, 1.25332609e-01, 1.14817373e-01,
          6.80977013e-03, 2.74945777e-02, 3.01744193e-01, 1.28465816e-01,
          8.15681145e-02, 1.22351728e-01, 1.10663109e-01, 2.28449628e-01,
          9.46785361e-02, 0., 1.79561183e-01, 1.29346132e-01,
          8.98123160e-02, 6.44517019e-02, 1.00227438e-01, 2.01296479e-01,
          2.57577002e-01, 0., 0., 2.25503724e-02, 0., 0., 0.,
          2.96346128e-01, 2.85706937e-01, 1.00203291e-01, 7.06060603e-02,
          7.20399916e-02, 7.36565739e-02, 5.28889447e-02, 0. ]
      - [ 2.27831542e-01, 1.47566572e-01, 1.59279749e-01, 1.63330957e-01,
          1.00753687e-01, 3.63624692e-02, 1.21095583e-01, 7.92839751e-02,
          7.56284371e-02, 1.15354002e-01, 9.85536054e-02, 1.31548852e-01,
          0., 3.44355404e-02, 8.22836682e-02, 1.68772697e-01,
          1.08005472e-01, 1.90453187e-01, 1.53891355e-01, 0., 0., 0., 0.,
          0., 3.77116278e-02, 8.08085687e-03, 1.34219661e-01,
          1.97473079e-01, 8.97077620e-02, 1.30974427e-01, 1.10172331e-01,
          7.66453221e-02, 0., 0., 0., 1.86253577e-01, 2.49918655e-01,
          2.02670038e-01, 1.93458870e-01, 7.65986517e-02, 8.09084699e-02,
          6.28253520e-02, 1.25135154e-01, 1.96073011e-01, 2.02705309e-01,
          0., 0., 0., 1.98946208e-01, 1.94431528e-01, 3.88136320e-02, 0.,
          2.68100239e-02, 0., 8.85213446e-03, 1.50066763e-01,
          2.31377125e-01, 2.90842026e-01, 1.48395374e-01, 0.,
          8.83602202e-02, 9.67471749e-02, 8.98524150e-02, 1.05975188e-01 ]
      - [ 2.55223781e-01, 1.85953155e-01, 9.73680541e-02, 6.67835847e-02,
          5.28398808e-03, 9.83334631e-02, 3.95430066e-02, 1.52124792e-01,
          2.05437958e-01, 5.93210235e-02, 4.22222801e-02, 1.87751725e-02,
          0., 0., 1.30320359e-02, 1.80469453e-01, 6.25813231e-02,
          7.71186277e-02, 1.15849644e-01, 1.18919872e-01, 0., 0.,
          1.16812252e-01, 1.55771688e-01, 0., 0., 0., 0., 1.42803073e-01,
          1.66960835e-01, 2.27751300e-01, 2.10889876e-01, 4.69711311e-02,
          1.46509767e-01, 2.38012865e-01, 1.08753525e-01, 8.11875612e-02,
          1.10945523e-01, 1.09453008e-01, 9.53087956e-02, 1.22086421e-01,
          1.70095220e-01, 2.80116081e-01, 9.70804989e-02, 5.38509078e-02,
          0., 0., 5.08920029e-02, 0., 7.14374185e-02, 5.85811399e-02,
          4.02536131e-02, 2.44861096e-01, 2.08955482e-01, 1.31949186e-01,
          9.90187898e-02, 9.89824608e-02, 9.53047723e-02, 1.59517452e-01,
          2.76303500e-01, 0., 7.29906484e-02, 7.93297961e-02,
          9.36967582e-02 ]
      - [ 1.87697321e-01, 2.40490600e-01, 1.17119201e-01, 1.12448461e-01,
          1.13729618e-01, 1.50889643e-02, 1.62270758e-02, 5.90277836e-02,
          2.20934525e-01, 1.57932848e-01, 8.92724544e-02, 1.73818544e-02,
          0., 0., 8.88843555e-03, 1.69768527e-01, 1.48354039e-01,
          8.47509131e-03, 6.80044740e-02, 9.36024189e-02, 9.27299112e-02,
          4.78698276e-02, 8.93279463e-02, 1.18673742e-01, 2.32116640e-01,
          0., 0., 0., 1.60294712e-01, 1.87948495e-01, 1.32922396e-01,
          2.49319121e-01, 1.57829776e-01, 0., 0., 2.80890632e-02,
          1.64583296e-01, 1.51269391e-01, 1.67659372e-01, 2.55075991e-01,
          9.35289934e-02, 0., 6.28222749e-02, 9.64047834e-02,
          5.80873042e-02, 7.69917220e-02, 1.23939216e-01, 1.78742036e-01,
          1.82469487e-01, 1.92431688e-01, 9.65014249e-02, 0., 0., 0., 0.,
          0., 2.70471275e-01, 2.14374110e-01, 1.31200731e-01,
          1.50545999e-01, 0., 0., 0., 5.93401156e-02 ]
      - [ 3.52739692e-02, 1.05172433e-01, 2.63519615e-01, 2.33954102e-01,
          1.64341539e-01, 5.61766699e-02, 0., 0., 0., 0., 1.17366076e-01,
          2.93085426e-01, 3.02146748e-02, 1.28113199e-02, 5.67349279e-03,
          1.07398786e-01, 2.14355588e-01, 1.39967710e-01, 0., 0., 0., 0.,
          0., 0., 3.95335667e-02, 2.12282669e-02, 1.22048981e-01,
          1.39104873e-01, 1.07377075e-01, 6.14185184e-02, 1.18154906e-01,
          6.26496300e-02, 1.06994681e-01, 1.24811336e-01, 1.73823386e-02,
          3.07643652e-01, 1.02123871e-01, 1.05026990e-01, 1.03956521e-01,
          9.43484530e-02, 1.61160305e-01, 1.81076676e-01, 1.77024528e-02,
          2.15970293e-01, 1.06400050e-01, 5.44162691e-02, 9.50773507e-02,
          3.99146378e-02, 1.84228435e-01, 2.68852264e-01, 0., 0., 0., 0.,
          0., 0., 6.88995868e-02, 4.24102902e-01, 2.34013982e-02, 0.,
          2.99229622e-02, 0., 0., 0. ]
      - [ 1.50062278e-01, 2.88166493e-01, 1.71262383e-01, 1.15788959e-01,
          8.36964026e-02, 7.86900371e-02, 5.53439818e-02, 8.93189088e-02,
          1.19086176e-01, 2.38653392e-01, 6.84972033e-02, 0., 0., 0., 0.,
          0., 1.89935759e-01, 1.00475676e-01, 6.78324476e-02,
          1.14557892e-01, 8.70733336e-02, 6.34305328e-02, 5.75882718e-02,
          4.98633049e-02, 2.49690339e-02, 1.31170312e-02, 1.44204438e-01,
          2.60618985e-01, 9.91842076e-02, 1.07122689e-01, 1.24384254e-01,
          1.01348840e-01, 0., 1.34489566e-01, 2.58269787e-01,
          1.84346944e-01, 7.64725059e-02, 1.22744516e-01, 9.36176255e-02,
          1.07551515e-01, 2.24819064e-01, 1.11458287e-01, 2.50706282e-02,
          0., 4.33345176e-02, 3.40757743e-02, 1.71942413e-02, 0.,
          2.76887208e-01, 1.03803918e-01, 0., 2.60235146e-02, 0., 0., 0.,
          0., 1.87027082e-01, 3.22642297e-01, 1.97559416e-01,
          1.03141114e-01, 9.50129926e-02, 8.36521909e-02, 8.75393823e-02,
          7.91317895e-02 ]
      - [ 5.24260625e-02, 1.17540263e-01, 3.21365803e-01, 1.78787008e-01,
          1.09324947e-01, 0., 0., 0., 1.03217335e-02, 3.54339462e-03,
          6.77833110e-02, 2.21929014e-01, 1.03217335e-02, 8.91116541e-03,
          5.38246222e-02, 1.18533775e-01, 2.76262015e-01, 1.24856338e-01,
          0., 0., 0., 0., 0., 0., 0., 0., 7.97012672e-02, 2.23559216e-01,
          1.25559285e-01, 1.28587306e-01, 8.51559788e-02, 1.04686163e-01,
          7.09229782e-02, 4.28772084e-02, 1.27906159e-01, 1.61129594e-01,
          2.38655478e-01, 1.31806582e-01, 8.81647393e-02, 1.19409315e-01,
          2.24831939e-01, 1.19605392e-01, 6.34211153e-02, 1.54426709e-01,
          1.23243183e-01, 7.95760155e-02, 7.21578300e-02, 6.43519610e-02,
          2.21496060e-01, 2.12533325e-01, 0., 0., 0., 0., 0., 0.,
          3.96380574e-01, 2.10712925e-01, 0., 3.86974737e-02, 0., 0., 0.,
          0. ]
      - [ 1.65741637e-01, 3.31920415e-01, 2.20261272e-02, 6.19745553e-02,
          0., 6.31740168e-02, 7.02574775e-02, 0., 7.37926587e-02, 0.,
          7.04802871e-02, 0., 0., 0., 0., 0., 1.29500300e-01,
          1.42740920e-01, 5.06231897e-02, 0., 1.05481520e-01,
          9.56817493e-02, 7.29264989e-02, 9.94775295e-02, 1.75027460e-01,
          1.36064902e-01, 1.14796475e-01, 8.54577497e-02, 1.76139027e-01,
          1.17382504e-01, 2.62913495e-01, 1.42799988e-01, 0.,
          1.04575261e-01, 8.68969709e-02, 1.13740623e-01, 2.48297036e-01,
          1.57932952e-01, 1.52329922e-01, 9.54128653e-02, 1.52913794e-01,
          2.32914552e-01, 0., 9.78096873e-02, 0., 0., 0., 4.03019600e-02,
          1.01173967e-01, 1.21928394e-01, 1.69803783e-01, 1.84436604e-01,
          0., 0., 1.16430782e-02, 1.52105302e-01, 1.73380211e-01,
          1.68545932e-01, 2.04171792e-01, 2.77778059e-01, 1.26276940e-01,
          4.77403328e-02, 1.00249127e-01, 5.98075874e-02 ]
      - [ 1.57775015e-01, 2.25484952e-01, 1.82542473e-01, 0., 0.,
          6.51441664e-02, 1.01906925e-01, 1.06174976e-01, 4.25895862e-02,
          8.14391300e-02, 6.16369583e-02, 0., 0., 3.72011699e-02,
          2.20153660e-01, 1.69394210e-01, 3.06746691e-01, 5.37050664e-02,
          0., 0., 3.53495963e-02, 0., 2.14049760e-02, 0., 0., 0., 0., 0.,
          8.34381282e-02, 1.12272598e-01, 1.55550882e-01, 2.08427355e-01,
          0., 4.80492860e-02, 2.30821371e-01, 1.86695084e-01,
          1.92067608e-01, 1.55112207e-01, 1.01480693e-01, 1.68730929e-01,
          1.71369374e-01, 1.75186172e-01, 2.88284600e-01, 7.60218129e-02,
          0., 0., 0., 0., 4.90501560e-02, 0., 5.72160482e-02, 0.,
          6.68055043e-02, 5.72299026e-02, 1.46519616e-01, 2.80883938e-01,
          1.79561555e-01, 1.73093393e-01, 1.87950775e-01, 1.47816300e-01,
          6.40758872e-02, 7.12545663e-02, 2.45161280e-02, 7.94222802e-02 ]
      - [ 1.10832565e-01, 3.20233941e-01, 1.96890220e-01, 0.,
          2.81405840e-02, 8.85726511e-02, 7.56050721e-02, 7.33489990e-02,
          9.62369964e-02, 1.00834891e-01, 7.55806034e-03, 4.26033810e-02,
          8.66070669e-03, 7.55806034e-03, 4.60602017e-03, 0.,
          3.32408585e-02, 2.53322840e-01, 2.65319962e-02, 2.45870929e-02,
          0., 1.70157030e-02, 0., 2.38650646e-02, 0., 2.54815370e-02,
          2.23718248e-02, 2.58971870e-01, 2.16253176e-01, 1.33980155e-01,
          9.78148580e-02, 1.26415595e-01, 0., 1.36152223e-01,
          1.90920159e-01, 1.81219772e-01, 2.48926461e-01, 1.05816461e-01,
          1.49198845e-01, 1.34047240e-01, 1.71848461e-01, 2.05630347e-01,
          1.31515265e-01, 0., 0., 0., 0., 0., 9.65463892e-02,
          2.25010425e-01, 2.83946451e-02, 1.27247665e-02, 0., 0., 0., 0.,
          3.87318595e-03, 4.11782771e-01, 1.24273531e-01, 1.10797890e-01,
          1.26438349e-01, 7.11866096e-02, 8.49898309e-02, 4.95864525e-02 ]
      - [ 2.02066541e-01, 1.59882843e-01, 1.86623454e-01, 1.99522361e-01,
          8.28203112e-02, 0., 2.73058098e-03, 0., 8.82138684e-02,
          1.45565942e-01, 1.32408306e-01, 6.36791959e-02, 1.43623471e-01,
          1.19224012e-01, 2.73058098e-03, 4.98176254e-02, 4.30975668e-02,
          6.10576477e-03, 9.77198109e-02, 1.18327916e-01, 1.24969833e-01,
          1.21593148e-01, 1.16053730e-01, 1.24581739e-01, 1.10005781e-01,
          3.47300954e-02, 4.88396920e-02, 1.42228276e-01, 1.01907797e-01,
          1.73074991e-01, 2.05348834e-01, 1.99396998e-01, 8.57271403e-02,
          4.34001125e-02, 0., 1.03459276e-01, 2.06576854e-01,
          1.95200458e-01, 1.38892844e-01, 2.04008788e-01, 4.59526777e-02,
          2.49013845e-02, 1.26263753e-01, 1.75405979e-01, 1.26665056e-01,
          1.25645325e-01, 8.45326632e-02, 9.00231525e-02, 0.,
          1.65951252e-01, 2.68630952e-01, 0., 3.24722636e-03, 0., 0.,
          9.89098325e-02, 1.40900120e-01, 2.44872287e-01, 2.14133143e-01,
          1.66928723e-01, 3.24722636e-03, 0., 0., 0. ]
      - [ 1.24826588e-01, 1.71301782e-01, 1.41595840e-01, 2.73246914e-01,
          8.53579715e-02, 6.64547384e-02, 8.06843564e-02, 3.44499350e-02,
          3.19749415e-02, 7.63211697e-02, 4.16279621e-02, 1.04194559e-01,
          0., 0., 1.34120494e-01, 1.23618506e-01, 1.82079270e-01,
          2.49434680e-01, 7.20797703e-02, 0., 0., 0., 0., 0.,
          4.15466353e-02, 6.02527671e-02, 1.01212978e-01, 1.13851510e-01,
          2.27945819e-01, 2.00692326e-01, 1.54974908e-01, 9.13179591e-02,
          0., 5.02703190e-02, 7.45035708e-02, 2.18559951e-01,
          2.13495761e-01, 2.32163042e-01, 1.43550947e-01, 1.69917941e-01,
          1.24322020e-01, 0., 4.30815332e-02, 1.57493114e-01,
          6.86554313e-02, 7.90985376e-02, 6.13605194e-02, 5.76045960e-02,
          6.65545836e-02, 1.20562911e-01, 1.25427827e-01, 0., 0., 0., 0.,
          0., 7.57953450e-02, 4.40477401e-01, 8.42004865e-02,
          3.52510177e-02, 1.15584172e-01, 7.96597451e-02, 6.79768696e-02,
          4.93699946e-02 ]
      - [ 2.13705078e-01, 1.64712325e-01, 1.22942723e-01, 9.89375412e-02,
          0., 0., 0., 0., 0., 0., 0., 0., 3.56380194e-02, 1.50572672e-01,
          1.37701377e-01, 1.28954604e-01, 9.75268632e-02, 1.75878555e-01,
          1.61240727e-01, 1.47384211e-01, 2.09525630e-01, 3.54844704e-02,
          6.30490109e-02, 6.34527057e-02, 4.68020551e-02, 2.59272680e-02,
          0., 1.66073993e-01, 2.05861703e-01, 2.18974382e-01,
          1.10534988e-01, 9.72879753e-02, 7.58807659e-02, 1.09687105e-01,
          7.59494156e-02, 1.35168865e-01, 1.19664058e-01, 9.76740792e-02,
          1.00049637e-01, 2.26883516e-01, 2.86936522e-01, 5.20697385e-02,
          0., 4.12441865e-02, 6.37048408e-02, 6.76826239e-02,
          7.76185244e-02, 0., 1.34866923e-01, 1.27961427e-01,
          1.44134641e-01, 1.52991518e-01, 1.50714949e-01, 7.89654851e-02,
          7.37220645e-02, 1.42088532e-01, 1.88383490e-01, 2.38551706e-01,
          1.99286044e-01, 1.58920765e-01, 1.98770270e-01, 0.,
          1.42757064e-02, 0. ]
      - [ 1.87417895e-01, 1.30338833e-01, 1.99738428e-01, 2.16685891e-01,
          1.37787119e-01, 1.15171090e-01, 6.83586746e-02, 0.,
          1.02378950e-01, 9.89055708e-02, 1.91198424e-01, 9.97270271e-02,
          0., 0., 6.06732517e-02, 1.52289659e-01, 2.35890821e-01,
          2.05994204e-01, 1.51042454e-02, 0., 3.88487871e-03, 0.,
          3.26678064e-03, 0., 2.48753615e-02, 0., 1.18492462e-01,
          1.97412342e-01, 1.57971025e-01, 1.45136699e-01, 1.43557444e-01,
          1.44986613e-02, 1.05459891e-01, 1.02394745e-01, 8.76957849e-02,
          1.40065849e-01, 1.80589840e-01, 2.09516779e-01, 1.46340668e-01,
          9.92206708e-02, 1.77395552e-01, 8.75692070e-02, 7.46458098e-02,
          1.25842109e-01, 1.09554403e-01, 1.49949506e-01, 5.42136766e-02,
          5.92312738e-02, 1.05236188e-01, 2.20084429e-01, 7.69184902e-02,
          4.55100536e-02, 0., 0., 0., 4.43810001e-02, 2.24359572e-01,
          3.25541526e-01, 1.58548445e-01, 5.08653261e-02, 0., 0., 0., 0. ]
      - [ 0., 1.65155068e-01, 3.32018167e-01, 2.21948810e-02, 0.,
          6.10059462e-02, 7.13351220e-02, 6.91130757e-02, 5.18086217e-02,
          1.17115475e-01, 1.29575819e-01, 0., 0., 0., 0., 0.,
          1.10895224e-01, 1.07127443e-01, 0., 0., 0., 1.24521762e-01,
          5.17099686e-02, 0., 7.97316059e-02, 3.95985804e-02,
          4.02395166e-02, 2.77480930e-01, 1.17269978e-01, 1.11269273e-01,
          1.13921814e-01, 1.47168636e-01, 1.63421050e-01, 1.57881767e-01,
          2.01096699e-01, 1.14656687e-01, 1.13443069e-01, 6.98632076e-02,
          1.21954024e-01, 2.06411749e-01, 2.70193517e-01, 2.48973593e-02,
          7.50104785e-02, 7.97180161e-02, 7.20310509e-02, 5.00316992e-02,
          8.75029191e-02, 5.62468246e-02, 1.61231041e-01, 0.,
          3.41760665e-02, 5.16761765e-02, 0., 0., 6.84464350e-03,
          2.17663482e-01, 3.27155292e-01, 1.23551317e-01, 6.53170049e-02,
          1.10137552e-01, 8.21411759e-02, 9.81697142e-02, 1.13579266e-01,
          3.10086012e-01 ]
      - [ 7.37063661e-02, 4.67149094e-02, 1.21624567e-01, 2.45951846e-01,
          1.39988899e-01, 1.78818047e-01, 3.55102960e-03, 0., 0., 0., 0.,
          0., 5.76077886e-02, 2.52084106e-01, 1.26843825e-01,
          1.83238126e-02, 1.28049150e-01, 1.00369476e-01, 1.75019786e-01,
          1.28244638e-01, 1.37954965e-01, 8.85743275e-02, 6.70924932e-02,
          7.63256922e-02, 2.70759352e-02, 6.62121251e-02, 8.56035277e-02,
          1.64180443e-01, 2.18398452e-01, 2.19884381e-01, 1.44870520e-01,
          5.12632802e-02, 7.53528774e-02, 1.05186768e-01, 6.50384873e-02,
          1.84021801e-01, 1.54859051e-01, 2.90026456e-01, 2.03021556e-01,
          2.68815979e-02, 9.58066806e-02, 0., 1.79781765e-02, 0., 0.,
          1.15583442e-01, 1.30978584e-01, 4.58713062e-02, 6.71036765e-02,
          9.65551883e-02, 9.14796069e-02, 1.26828820e-01, 0., 0.,
          4.01973650e-02, 0., 1.47201866e-01, 2.06004947e-01,
          2.40223259e-01, 2.76471794e-01, 6.52516037e-02, 9.17288288e-02,
          8.70276839e-02, 8.37980509e-02 ]
      - [ 1.23203374e-01, 1.78749382e-01, 1.34224847e-01, 1.67089343e-01,
          0., 0., 3.49896327e-02, 4.31179851e-02, 1.08638443e-01,
          1.29880026e-01, 1.54288664e-01, 5.84369339e-02, 8.44240263e-02,
          9.93017554e-02, 9.69154760e-02, 1.54848278e-01, 1.13870487e-01,
          2.87805051e-01, 1.00031763e-01, 6.52422756e-02, 8.74008387e-02,
          5.73527850e-02, 6.52031526e-02, 5.39419279e-02, 8.09413567e-02,
          1.16673276e-01, 1.15047330e-02, 2.27057770e-01, 1.02569267e-01,
          1.15341961e-01, 9.96520221e-02, 1.10196322e-01, 9.89230722e-02,
          2.22093761e-01, 3.81027348e-02, 0., 2.07572743e-01,
          1.30772948e-01, 1.23530284e-01, 1.04243875e-01, 1.40444607e-01,
          2.49191120e-01, 6.68701306e-02, 1.36180148e-01, 3.67361680e-02,
          7.16917738e-02, 5.91976307e-02, 9.58951414e-02, 2.58216560e-02,
          0., 0., 1.30230412e-01, 2.23927185e-01, 1.70899555e-01,
          1.16203591e-01, 7.13248178e-02, 7.66922235e-02, 2.10274726e-01,
          1.95579544e-01, 1.41569778e-01, 1.37987927e-01, 1.92109391e-01,
          1.13564664e-02, 2.76118126e-02 ]
      - [ 1.23137325e-01, 1.76181257e-01, 2.53830254e-01, 1.20154612e-01,
          7.45673627e-02, 9.80059803e-02, 9.07861441e-02, 1.17627658e-01,
          8.83290097e-02, 8.92415419e-02, 1.75810173e-01, 0.,
          1.92600004e-02, 0., 0., 1.03833653e-01, 1.77141443e-01,
          2.19638348e-02, 0., 8.50499719e-02, 8.63911510e-02,
          1.05546303e-01, 3.58725041e-02, 0., 2.41244789e-02,
          2.94591393e-02, 0., 1.47302747e-01, 2.02089593e-01,
          1.57492980e-01, 1.72819018e-01, 1.46921679e-01, 0.,
          1.52937576e-01, 2.32631579e-01, 2.20994890e-01, 1.24765985e-01,
          9.99405608e-02, 1.14844486e-01, 1.11311466e-01, 1.17379718e-01,
          2.17076823e-01, 1.16536848e-01, 1.88055426e-01, 0., 0., 0., 0.,
          2.03278020e-01, 4.38116156e-02, 0., 1.31263956e-01,
          3.86143848e-02, 0., 5.05192764e-03, 5.54978997e-02,
          3.56369406e-01, 1.82434529e-01, 1.38414130e-01, 4.48222570e-02,
          9.70533937e-02, 8.56378824e-02, 1.30553737e-01, 1.13964215e-01 ]
      - [ 8.09033364e-02, 1.47064000e-01, 2.24857256e-01, 2.60253161e-01,
          0., 0., 0., 1.22728767e-02, 0., 5.41213788e-02, 1.27536640e-01,
          1.68466032e-01, 8.63812864e-02, 3.37390676e-02, 8.17328021e-02,
          6.65887967e-02, 1.01726979e-01, 1.25967100e-01, 7.25078136e-02,
          4.60134633e-02, 1.30845636e-01, 1.23655021e-01, 8.85162577e-02,
          5.92117012e-02, 1.02147914e-01, 2.28515435e-02, 6.84512854e-02,
          2.10116386e-01, 1.98879421e-01, 1.43581480e-01, 1.19047321e-01,
          1.24533840e-01, 9.55508128e-02, 1.15341954e-01, 1.37166217e-01,
          1.49126142e-01, 1.53089285e-01, 1.92589059e-01, 1.51678443e-01,
          1.33690253e-01, 1.27322242e-01, 1.90291762e-01, 0.,
          9.24529359e-02, 1.72123194e-01, 9.07208249e-02, 5.48034906e-02,
          2.09110603e-02, 1.46512151e-01, 1.24923706e-01, 1.41941771e-01,
          1.52648583e-01, 3.91656272e-02, 4.92465794e-02, 1.00472577e-01,
          1.72266051e-01, 1.73596010e-01, 1.49316475e-01, 1.66916981e-01,
          1.69689521e-01, 1.58636987e-01, 8.61103162e-02, 1.22338265e-01,
          1.05193600e-01 ]
      - [ 1.73277318e-01, 2.51057237e-01, 2.13695198e-01, 0.,
          1.21224366e-01, 0., 1.02429666e-01, 9.25825611e-02,
          1.14336915e-01, 1.67700768e-01, 1.01990134e-01, 0., 0., 0., 0.,
          1.20287105e-01, 1.13916203e-01, 8.12023804e-02, 5.88287525e-02,
          1.27161309e-01, 1.43182233e-01, 1.15639120e-01, 0., 0., 0., 0.,
          0., 1.43057346e-01, 2.35403299e-01, 1.72374651e-01,
          2.14060664e-01, 1.34405330e-01, 0., 7.84838945e-03,
          1.78172514e-01, 1.61723465e-01, 2.18950436e-01, 1.12410016e-01,
          8.26125294e-02, 1.11993559e-01, 1.20849282e-01, 1.27166346e-01,
          1.61445633e-01, 1.97555080e-01, 0., 0., 0., 0., 0.,
          1.16468526e-01, 9.70226899e-02, 1.11095920e-01, 1.66212529e-01,
          1.40722916e-01, 1.28892988e-01, 1.13443248e-01, 1.38916716e-01,
          1.48817539e-01, 2.49858126e-01, 1.76404685e-01, 1.60528943e-01,
          5.04755080e-02, 6.55854270e-02, 7.26743862e-02 ]
      - [ 1.88350499e-01, 7.67780319e-02, 8.75371322e-02, 1.12484366e-01,
          2.25845292e-01, 1.42016366e-01, 1.10840529e-01, 1.08569078e-01,
          5.78331016e-02, 6.50657490e-02, 7.95587823e-02, 6.27948269e-02,
          1.77073255e-01, 1.33498728e-01, 1.60464436e-01, 1.18350014e-01,
          4.38276790e-02, 1.09962210e-01, 1.13070220e-01, 1.84826180e-01,
          1.55462965e-01, 8.64016786e-02, 7.15107620e-02, 4.65486422e-02,
          7.52189755e-02, 2.71930476e-03, 2.09113453e-02, 1.69350132e-01,
          2.45347753e-01, 1.62535653e-01, 9.45694223e-02, 8.94119963e-02,
          0., 0., 0., 1.33303076e-01, 3.03268492e-01, 1.13219321e-01,
          7.60273710e-02, 4.69232164e-02, 9.07679647e-02, 7.20269755e-02,
          1.15277797e-01, 1.21126406e-01, 2.15069890e-01, 2.11349558e-02,
          0., 0., 0., 1.09147295e-01, 1.08997889e-01, 1.79699093e-01,
          8.83730650e-02, 1.66926563e-01, 1.15963183e-01, 1.01028495e-01,
          9.27921385e-02, 1.21296190e-01, 2.16320470e-01, 1.97355449e-01,
          1.91860855e-01, 9.91041511e-02, 5.54311536e-02, 7.25247338e-02 ]
      - [ 8.99613425e-02, 9.69058126e-02, 1.24712966e-01, 2.95077682e-01,
          3.04057393e-02, 0., 0., 0., 0., 1.09769674e-02, 1.62445441e-01,
          2.24888086e-01, 1.13316856e-01, 1.22668907e-01, 8.15137699e-02,
          9.07352343e-02, 6.09408729e-02, 6.57784045e-02, 1.06096238e-01,
          2.55374700e-01, 3.50967199e-02, 4.84684296e-02, 3.96269374e-02,
          5.96823543e-02, 1.14490166e-02, 4.35595401e-02, 3.00013404e-02,
          1.77768260e-01, 1.81697652e-01, 1.07020304e-01, 8.81025940e-02,
          1.08441755e-01, 4.65640984e-02, 1.35807216e-01, 1.75932020e-01,
          1.85628757e-01, 1.77778214e-01, 1.36644945e-01, 1.00751415e-01,
          9.74903703e-02, 1.12278648e-01, 2.08592340e-01, 8.11420307e-02,
          1.93697810e-01, 8.61021355e-02, 5.77309392e-02, 5.65193854e-02,
          5.62413596e-02, 9.81635302e-02, 9.79360044e-02, 1.19117200e-01,
          1.40325814e-01, 0., 1.94969736e-02, 2.00428516e-01,
          1.66796803e-01, 1.55517593e-01, 1.42275438e-01, 1.25261307e-01,
          2.33541340e-01, 0., 3.27953510e-02, 2.09482923e-01,
          1.13994636e-01 ]
      - [ 2.22360224e-01, 2.01764762e-01, 1.05243526e-01, 8.01380798e-02,
          7.60524347e-02, 6.29155040e-02, 9.42688584e-02, 5.01205958e-02,
          2.41600022e-01, 1.42175272e-01, 0., 0., 2.34888270e-02, 0., 0.,
          1.38098607e-02, 1.56294614e-01, 2.96753738e-02, 1.30469963e-01,
          1.23531535e-01, 7.54444152e-02, 1.10161752e-01, 6.96297213e-02,
          1.02552235e-01, 1.08339436e-01, 1.62062999e-02, 0.,
          2.23597884e-01, 1.15291484e-01, 1.03874922e-01, 1.39784291e-01,
          1.54318243e-01, 2.79522002e-01, 1.51267633e-01, 8.79341662e-02,
          1.74594015e-01, 1.26858190e-01, 1.48580477e-01, 7.62550011e-02,
          1.31888971e-01, 2.05048949e-01, 1.92440808e-01, 0., 0., 0.,
          2.06505582e-02, 0., 1.44715663e-02, 8.03345665e-02,
          1.27288252e-01, 1.05714165e-01, 0., 3.92659800e-03,
          4.43057939e-02, 1.72074988e-01, 1.25816509e-01, 1.72670349e-01,
          1.73246831e-01, 2.34606206e-01, 5.62149733e-02, 1.26306117e-01,
          1.44254684e-01, 1.60912454e-01, 1.71485052e-01 ]
      - [ 1.10601693e-01, 1.57522872e-01, 2.53303230e-01, 1.27411753e-01,
          1.33118540e-01, 2.74064038e-02, 6.26053708e-03, 0., 0., 0., 0.,
          0., 1.47984207e-01, 2.15346590e-01, 1.61550283e-01,
          1.44562319e-01, 9.45424438e-02, 1.10507376e-01, 1.19324446e-01,
          1.10142179e-01, 1.01948611e-01, 1.35874406e-01, 1.33094922e-01,
          7.38786012e-02, 0., 0., 0., 0., 1.61621019e-01, 2.56377786e-01,
          1.67288408e-01, 1.14763014e-01, 8.76470879e-02, 9.01224092e-02,
          7.38385618e-02, 0., 0., 1.64836198e-01, 1.89162463e-01,
          2.34655306e-01, 2.20981658e-01, 1.31468445e-01, 0.,
          7.32584223e-02, 0., 5.94631210e-02, 8.47669020e-02, 0.,
          1.60685509e-01, 1.15173072e-01, 1.05981238e-01, 4.75543290e-02,
          0., 2.12405398e-02, 1.26967132e-01, 2.49709174e-01,
          2.13273868e-01, 1.88391820e-01, 1.17905080e-01, 1.59968212e-01,
          3.20764333e-02, 7.74553120e-02, 0., 1.89057603e-01 ]
      - [ 7.13676214e-02, 2.10004017e-01, 2.22194538e-01, 1.92091972e-01,
          1.33311838e-01, 3.54057625e-02, 0., 1.76459961e-02,
          1.04858894e-02, 0., 5.96368834e-02, 1.78086057e-01,
          1.03039533e-01, 1.03055529e-01, 6.63331375e-02, 6.72120824e-02,
          2.05588534e-01, 1.93233088e-01, 1.24950148e-01, 1.16010763e-01,
          7.27404505e-02, 8.12723190e-02, 6.75469041e-02, 5.94227538e-02,
          4.62139696e-02, 1.61446169e-01, 2.32048571e-01, 1.70647413e-01,
          1.29832387e-01, 1.10430986e-01, 1.56508327e-01, 1.34443223e-01,
          0., 7.28524849e-02, 5.99022023e-02, 8.66466388e-02,
          1.76627159e-01, 1.25373825e-01, 1.62235752e-01, 1.02256298e-01,
          2.25861564e-01, 6.47748709e-02, 0., 0., 8.54006708e-02,
          7.34776184e-02, 5.15774488e-02, 8.42223614e-02, 4.57942747e-02,
          3.35067287e-02, 1.70423925e-01, 1.37259677e-01, 1.32160187e-01,
          1.17356256e-01, 1.17186680e-01, 1.51854411e-01, 1.69559583e-01,
          1.26559794e-01, 1.96484908e-01, 1.50589019e-01, 1.56027317e-01,
          1.90696567e-01, 4.48229983e-02, 5.04912883e-02 ]
      - [ 1.74876049e-01, 2.19077021e-01, 2.05908179e-01, 2.38002405e-01,
          0., 6.79869428e-02, 7.44919702e-02, 6.04665838e-02,
          1.11217782e-01, 1.13160439e-01, 2.17935607e-01, 0., 0.,
          2.08129771e-02, 0., 0., 2.07159221e-01, 1.39097385e-02,
          1.09572083e-01, 9.04434994e-02, 8.95063058e-02, 8.04498643e-02,
          4.71723787e-02, 0., 0., 0., 0., 0., 1.73485324e-01,
          2.83168256e-01, 1.83166087e-01, 1.65077582e-01, 8.91506001e-02,
          1.61479831e-01, 1.31881148e-01, 1.90678686e-01, 1.76254541e-01,
          1.17889196e-01, 7.30056763e-02, 2.25701526e-01, 2.00108200e-01,
          1.44499419e-02, 0., 9.87333357e-02, 0., 7.79030025e-02,
          1.01242609e-01, 8.99466202e-02, 7.12551624e-02, 0.,
          5.75552844e-02, 0., 0., 0., 3.56177054e-02, 1.94167212e-01,
          2.20011652e-01, 2.64695495e-01, 1.49251163e-01, 1.23427838e-01,
          1.06197827e-01, 7.68490694e-03, 5.89246303e-02, 5.28879613e-02 ]
      - [ 1.54493004e-01, 2.27448151e-01, 1.60797238e-01, 1.47896037e-01,
          6.69708624e-02, 6.58188984e-02, 9.41664055e-02, 5.64964004e-02,
          7.43393749e-02, 7.75331780e-02, 1.10550329e-01, 4.80439588e-02,
          0., 1.37037203e-01, 1.43278927e-01, 1.24783888e-01,
          2.07024753e-01, 2.52812952e-01, 0., 0., 3.04537341e-02, 0.,
          7.20040798e-02, 1.13351583e-01, 1.75029114e-02, 1.37962356e-01,
          1.23714387e-01, 1.60799176e-01, 1.00553147e-01, 1.64254159e-01,
          1.34671032e-01, 1.59739822e-01, 7.12004304e-02, 8.27271789e-02,
          5.76419756e-02, 1.19055077e-01, 1.81711748e-01, 9.74324569e-02,
          1.35419741e-01, 1.56064004e-01, 2.60941893e-01, 1.07804321e-01,
          0., 0., 9.90550220e-02, 5.59215657e-02, 0., 7.92048424e-02,
          1.07670665e-01, 1.23091310e-01, 8.01088959e-02, 5.43260798e-02,
          0., 2.21620321e-01, 1.42295927e-01, 1.23255052e-01,
          1.43584430e-01, 1.98313147e-01, 2.29106143e-01, 1.66538268e-01,
          1.44094378e-01, 3.16691473e-02, 7.39860162e-02, 7.90465251e-02 ]
      - [ 3.03769559e-02, 2.00835362e-01, 2.54796714e-01, 2.05600157e-01,
          4.07094210e-02, 1.40720047e-02, 0., 0., 0., 1.15370646e-01,
          1.12384737e-01, 2.16629058e-01, 9.28072333e-02, 1.02274172e-01,
          5.98977953e-02, 9.47434083e-02, 8.51866826e-02, 9.40409973e-02,
          2.25764886e-01, 1.30729899e-01, 1.54948086e-01, 7.06279185e-03,
          4.30419482e-03, 0., 2.51197182e-02, 3.68080921e-02,
          2.29440525e-01, 1.65779352e-01, 1.92036048e-01, 1.24775536e-01,
          6.20619245e-02, 1.14951797e-01, 8.98925215e-02, 1.62679791e-01,
          0., 1.09338783e-01, 1.46631628e-01, 1.54105783e-01,
          1.95077494e-01, 1.09378465e-01, 1.53233543e-01, 1.60640642e-01,
          0., 1.12688698e-01, 4.66360711e-02, 7.45278969e-02,
          6.58158809e-02, 0., 1.95854485e-01, 1.50571704e-01,
          9.34156403e-02, 0., 0., 8.09318386e-03, 6.03119992e-02,
          1.58590749e-01, 2.21330047e-01, 2.07118005e-01, 1.52456269e-01,
          1.42121106e-01, 1.00866817e-01, 7.43350014e-02, 8.03246498e-02,
          1.15855053e-01 ]
      - [ 3.02670538e-01, 1.25348166e-01, 1.55887991e-01, 1.02184713e-01,
          0., 5.57142757e-02, 7.14428425e-02, 7.59429112e-02,
          7.64292032e-02, 7.37917721e-02, 1.03727676e-01, 7.37299323e-02,
          0., 0., 9.35857445e-02, 9.23269093e-02, 9.01078209e-02,
          8.25158283e-02, 1.34452716e-01, 4.65896577e-02, 1.21799648e-01,
          1.27348095e-01, 1.50200009e-01, 4.17301059e-02, 0., 0.,
          9.81286541e-02, 8.16919729e-02, 1.52099594e-01, 1.63218766e-01,
          2.28087440e-01, 1.04930021e-01, 0., 3.40914424e-03, 0.,
          1.88006639e-01, 2.05805942e-01, 1.87287465e-01, 2.11254925e-01,
          1.00598618e-01, 1.22181520e-01, 7.22053796e-02, 1.97814927e-01,
          1.97940081e-01, 9.36261043e-02, 0., 7.85182565e-02,
          3.65555435e-02, 1.67118803e-01, 1.49232104e-01, 1.27560511e-01,
          1.28107429e-01, 9.52747557e-03, 7.91124627e-03, 6.41623810e-02,
          1.90785155e-01, 1.68540135e-01, 2.32121274e-01, 2.19627842e-01,
          1.31440580e-01, 0., 4.52000089e-02, 0., 1.54595733e-01 ]
      - [ 1.32145777e-01, 2.05546111e-01, 1.77230805e-01, 2.01756299e-01,
          1.03341915e-01, 0., 2.85319090e-02, 0., 0., 2.93187075e-03,
          1.50860073e-02, 2.10642204e-01, 1.37732103e-01, 4.34778892e-02,
          6.17911629e-02, 7.13846460e-02, 8.56376886e-02, 1.04977272e-01,
          6.07658215e-02, 1.44756228e-01, 2.06815332e-01, 6.85592145e-02,
          0., 0., 0., 0., 0., 0., 2.66714960e-01, 1.82339460e-01,
          1.59910992e-01, 1.04843535e-01, 5.24520203e-02, 8.37269723e-02,
          9.98228639e-02, 7.42210299e-02, 2.40990669e-01, 1.19372644e-01,
          1.23698838e-01, 1.37354329e-01, 9.53485742e-02, 1.69007137e-01,
          2.16641814e-01, 5.65575920e-02, 6.79749027e-02, 5.87478690e-02,
          6.72705621e-02, 6.54482096e-02, 0., 8.70587677e-02,
          1.13630891e-01, 1.91266581e-01, 1.34332716e-01, 1.76359087e-01,
          1.07304700e-01, 1.36134788e-01, 1.49252817e-01, 1.40604034e-01,
          2.13640064e-01, 1.54789925e-01, 2.08490014e-01, 1.25666916e-01,
          8.54496583e-02, 0. ]
      - [ 7.36966431e-02, 1.47687629e-01, 2.98766047e-01, 8.20064321e-02,
          0., 0., 0., 0., 8.96983594e-03, 0., 2.45880291e-01,
          1.24314845e-01, 9.07836705e-02, 9.48140323e-02, 1.02788419e-01,
          7.34018534e-02, 5.66062033e-02, 9.90958586e-02, 2.93493003e-01,
          1.51080817e-01, 4.80688876e-03, 0., 4.95053595e-03, 0., 0.,
          1.73889734e-02, 3.04355770e-02, 2.21192807e-01, 1.76549077e-01,
